{"learner":{"attributes":{"best_iteration":"48","best_score":"0.01003206320218337"},"feature_names":["Latitude","Longitude","Year","pH","EC","CO3","HCO3","Cl","SO4","NO3","TH","Ca","Mg","Na","K","F","TDS","State_Andhra Pradesh","State_Arunachal Pradesh","State_Assam","State_Bihar","State_Chandigarh","State_Chhattisgarh","State_Dadra and Nagar Haveli","State_Daman and Diu","State_Delhi","State_Goa","State_Gujarat","State_Haryana","State_Himachal Pradesh","State_Jammu and Kashmir","State_Jharkhand","State_Karnataka","State_Kerala","State_Madhya Pradesh","State_Maharashtra","State_Meghalaya","State_Mizoram","State_Nagaland","State_Odisha","State_Puducherry","State_Punjab","State_Rajasthan","State_Tamil Nadu","State_Telangana","State_Tripura","State_Uttar Pradesh","State_Uttarakhand","State_West Bengal"],"feature_types":["float","float","float","float","float","float","float","float","float","float","float","float","float","float","float","float","float","int","int","int","int","int","int","int","int","int","int","int","int","int","int","int","int","int","int","int","int","int","int","int","int","int","int","int","int","int","int","int","int"],"gradient_booster":{"model":{"cats":{"enc":[],"feature_segments":[],"sorted_idx":[]},"gbtree_model_param":{"num_parallel_tree":"1","num_trees":"59"},"iteration_indptr":[0,1,2,3,4,5,6,7,8,9,10,11,12,13,14,15,16,17,18,19,20,21,22,23,24,25,26,27,28,29,30,31,32,33,34,35,36,37,38,39,40,41,42,43,44,45,46,47,48,49,50,51,52,53,54,55,56,57,58,59],"tree_info":[0,0,0,0,0,0,0,0,0,0,0,0,0,0,0,0,0,0,0,0,0,0,0,0,0,0,0,0,0,0,0,0,0,0,0,0,0,0,0,0,0,0,0,0,0,0,0,0,0,0,0,0,0,0,0,0,0,0,0],"trees":[{"base_weights":[1.872101E-7,1.0878648E0,-5.8136272E0,1.1236929E0,-1.8179011E0,-2.9178302E0,-6.0113254E0,1.1735995E0,-3.690229E-1,-4.2175198E-1,-4.8867574E0,-6.9873923E-1,-4.641975E0,-5.0733237E0,-1.8216658E0,1.1788005E0,-4.4807777E-1,4.9661738E-1,-4.6433935E0,5.653529E-1,-2.7916818E0,-3.8443944E-1,-1.5150636E0,6.0289174E-1,-2.9148328E0,-3.5120144E0,-1.6890787E0,-2.678192E0,-5.556671E0,1.185794E0,5.241776E-1,5.9516895E-1,-1.0995562E0,7.4118334E-1,-2.5073557E0,-1.354129E0,-4.967641E0,8.264014E-1,-8.5228556E-1,-9.226609E-1,-1.3996931E0,9.21344E-1,-3.8044283E-1,-7.452874E-1,-1.33476E0,-1.7950441E0,-1.4411185E0,7.2927475E-1,-4.4707236E0,-2.4634469E0,-1.7068424E0,3.5683694E-1,1.8416189E-1,3.217704E-1,-8.6751014E-1,2.7070463E-1,-3.8443944E-1,2.6422977E-1,-4.2905498E-1,-2.2358623E-1,-1.1375934E0,-6.212875E-1,4.470683E-2,-7.387366E-1,-1.5638727E0,3.016158E-1,-1.2019839E-1,1.0269831E-1,-7.4161714E-1,3.6807716E-2,-6.493316E-1,3.2989913E-1,3.4436155E-2,4.5512587E-2,-6.0734904E-1,-5.525812E-2,-1.0995402E0,2.5935206E-1,4.470683E-2,-4.2496675E-1,-1.4781266E0,4.470683E-2,-1.0996358E0],"categories":[],"categories_nodes":[],"categories_segments":[],"categories_sizes":[],"default_left":[0,0,0,0,0,0,0,0,0,0,0,0,0,0,0,0,0,0,0,0,0,0,0,0,0,0,0,0,0,0,0,0,0,0,0,0,0,0,0,0,0,0,0,0,0,0,0,0,0,0,0,0,0,0,0,0,0,0,0,0,0,0,0,0,0,0,0,0,0,0,0,0,0,0,0,0,0,0,0,0,0,0,0],"id":0,"left_children":[1,3,5,7,9,11,13,15,17,19,21,23,25,27,-1,29,31,33,35,37,39,-1,-1,41,43,45,-1,47,49,51,53,55,-1,57,59,61,63,65,67,69,-1,71,-1,73,-1,75,-1,77,79,81,-1,-1,-1,-1,-1,-1,-1,-1,-1,-1,-1,-1,-1,-1,-1,-1,-1,-1,-1,-1,-1,-1,-1,-1,-1,-1,-1,-1,-1,-1,-1,-1,-1],"loss_changes":[3.4366367E4,4.7858496E2,4.728203E2,3.3732275E2,2.384482E2,2.1362463E2,1.4935547E1,3.7438965E1,5.464491E2,9.4394745E1,3.8162537E0,7.664279E1,1.5650391E1,4.867395E1,0E0,1.9350098E1,5.156792E1,9.2369125E1,1.9791382E1,1.1377636E1,3.714602E1,0E0,0E0,1.1406933E1,2.9232178E1,3.0095642E1,0E0,7.135828E1,4.3673096E0,8.30957E0,9.283836E1,8.05768E0,0E0,3.6022278E1,1.8685253E1,4.1939025E0,8.3966064E-1,5.8635445E0,1.0477339E1,9.5750885E0,0E0,2.0690355E0,0E0,6.3330603E0,0E0,2.6713224E1,0E0,2.4020743E-1,3.398819E0,1.1869242E1,0E0,0E0,0E0,0E0,0E0,0E0,0E0,0E0,0E0,0E0,0E0,0E0,0E0,0E0,0E0,0E0,0E0,0E0,0E0,0E0,0E0,0E0,0E0,0E0,0E0,0E0,0E0,0E0,0E0,0E0,0E0,0E0,0E0],"parents":[2147483647,0,0,1,1,2,2,3,3,4,4,5,5,6,6,7,7,8,8,9,9,10,10,11,11,12,12,13,13,15,15,16,16,17,17,18,18,19,19,20,20,23,23,24,24,25,25,27,27,28,28,29,29,30,30,31,31,33,33,34,34,35,35,36,36,37,37,38,38,39,39,41,41,43,43,45,45,47,47,48,48,49,49],"right_children":[2,4,6,8,10,12,14,16,18,20,22,24,26,28,-1,30,32,34,36,38,40,-1,-1,42,44,46,-1,48,50,52,54,56,-1,58,60,62,64,66,68,70,-1,72,-1,74,-1,76,-1,78,80,82,-1,-1,-1,-1,-1,-1,-1,-1,-1,-1,-1,-1,-1,-1,-1,-1,-1,-1,-1,-1,-1,-1,-1,-1,-1,-1,-1,-1,-1,-1,-1,-1,-1],"split_conditions":[1.05E0,1.99E2,1.1E0,9.7E-1,6.9E-1,3.16E1,1.12E0,3.3E2,7.3E1,3.56E2,1.57E2,7.98E0,5.71E1,1.86E1,-1.8216658E0,1.45E2,7.6E-1,2.25E3,1.345E3,6.2E-1,4E-1,-3.8443944E-1,-1.5150636E0,5.22E1,1.7E1,7.85E0,-1.6890787E0,7.83E0,3.9876E2,2.16E2,8.2E-1,1.47E3,-1.0995562E0,8.41E0,4.07E1,1.28E2,1.49E2,3.3E2,1.721E3,1.1008E4,-1.3996931E0,7.83E0,-3.8044283E-1,8.28E0,-1.33476E0,4E1,-1.4411185E0,2.3756E1,3.5E2,7.73E0,-1.7068424E0,3.5683694E-1,1.8416189E-1,3.217704E-1,-8.6751014E-1,2.7070463E-1,-3.8443944E-1,2.6422977E-1,-4.2905498E-1,-2.2358623E-1,-1.1375934E0,-6.212875E-1,4.470683E-2,-7.387366E-1,-1.5638727E0,3.016158E-1,-1.2019839E-1,1.0269831E-1,-7.4161714E-1,3.6807716E-2,-6.493316E-1,3.2989913E-1,3.4436155E-2,4.5512587E-2,-6.0734904E-1,-5.525812E-2,-1.0995402E0,2.5935206E-1,4.470683E-2,-4.2496675E-1,-1.4781266E0,4.470683E-2,-1.0996358E0],"split_indices":[15,12,15,15,15,12,15,9,12,12,13,3,12,12,0,12,15,4,4,15,15,0,0,9,12,3,0,3,16,9,15,10,0,3,9,7,7,9,10,4,0,3,0,3,0,9,0,0,4,3,0,0,0,0,0,0,0,0,0,0,0,0,0,0,0,0,0,0,0,0,0,0,0,0,0,0,0,0,0,0,0,0,0],"split_type":[0,0,0,0,0,0,0,0,0,0,0,0,0,0,0,0,0,0,0,0,0,0,0,0,0,0,0,0,0,0,0,0,0,0,0,0,0,0,0,0,0,0,0,0,0,0,0,0,0,0,0,0,0,0,0,0,0,0,0,0,0,0,0,0,0,0,0,0,0,0,0,0,0,0,0,0,0,0,0,0,0,0,0],"sum_hessian":[5.4318994E3,4.5763677E3,8.555317E2,4.521234E3,5.5133656E1,5.5682247E1,7.998494E2,4.375171E3,1.4606303E2,3.8675846E1,1.6457808E1,2.4961008E1,3.0721241E1,5.389932E1,7.4595013E2,4.361456E3,1.371484E1,1.2219922E2,2.3863821E1,2.7841124E1,1.0834723E1,1.0971872E0,1.53606205E1,1.618351E1,8.777497E0,1.6457808E1,1.4263433E1,1.0148981E1,4.375034E1,4.3145513E3,4.690475E1,1.0971871E1,2.7429678E0,1.1369602E2,8.503201E0,2.6058195E0,2.1258001E1,2.3863821E1,3.9773035E0,6.1716776E0,4.6630454E0,1.4263433E1,1.9200776E0,4.2516003E0,4.525897E0,8.091755E0,8.366052E0,3.7030067E0,6.4459743E0,2.6058195E0,4.114452E1,4.2860244E3,2.8526867E1,4.100737E1,5.897381E0,9.874684E0,1.0971872E0,1.0738719E2,6.308826E0,4.2516003E0,4.2516003E0,1.5086323E0,1.0971872E0,2.8801162E0,1.8377886E1,2.0983704E1,2.8801162E0,2.7429678E0,1.2343355E0,3.8401551E0,2.3315227E0,1.1383317E1,2.8801162E0,3.0172646E0,1.2343355E0,4.937342E0,3.154413E0,2.6058195E0,1.0971872E0,1.3714839E0,5.0744905E0,1.0971872E0,1.5086323E0],"tree_param":{"num_deleted":"0","num_feature":"49","num_nodes":"83","size_leaf_vector":"1"}},{"base_weights":[1.9217697E-1,1.0467436E0,-1.753482E0,1.094206E0,-5.203255E-1,-1.0412542E0,-1.8088658E0,1.1242491E0,3.1544366E-1,8.633916E-2,-1.8726559E0,1.8764701E-1,-1.613846E0,-8.6141425E-1,-5.430638E-1,1.1278881E0,-6.956703E-2,9.1365916E-1,-1.4263954E0,8.2298136E-1,-1.1009666E0,-3.6563134E-1,-1.9872483E0,5.447758E-1,-1.509449E0,-8.4962285E-1,-1.9281781E0,-3.4715056E-2,-3.4706593E-1,1.1304675E0,4.242365E-1,6.3086224E-1,-5.663048E-1,1.0281396E0,-7.60423E-1,-5.4404306E-1,-2.011492E0,1.0674983E0,-3.491909E-1,-4.796373E-2,-1.9634533E0,1.2975997E-1,-3.5433382E-1,-9.7112286E-1,-6.34475E-1,7.531061E-1,-4.9864998E-1,-1.7915045E0,-4.2782832E-2,-1.3006248E-1,-1.7708579E0,-1.4238416E0,-2.3898082E0,2.1705793E-1,3.3967578E-1,3.129843E-1,-6.4661103E-1,2.7300838E-1,-1.7069684E-1,3.2568115E-1,-3.574366E-1,1.820639E-1,-4.8024735E-1,-3.284944E-1,-8.187889E-1,3.3365846E-1,-4.7621038E-2,2.8433204E-1,-4.8716363E-1,1.4141488E-1,-4.2043033E-1,-6.2678665E-1,-9.766529E-2,1.1793441E-1,-4.6091923E-1,3.191998E-1,2.8920567E-2,-1.7468247E-1,-5.974478E-1,1.7786837E-1,-3.4985232E-1,-5.6061197E-2,-6.371565E-1,4.3954983E-2,-4.995973E-1,-7.4291754E-1,-2.8193834E-1],"categories":[],"categories_nodes":[],"categories_segments":[],"categories_sizes":[],"default_left":[0,0,0,0,0,0,0,0,0,0,0,0,0,0,0,0,0,0,0,0,0,0,0,0,0,0,0,0,0,0,0,0,0,0,0,0,0,0,0,0,0,0,0,0,0,0,0,0,0,0,0,0,0,0,0,0,0,0,0,0,0,0,0,0,0,0,0,0,0,0,0,0,0,0,0,0,0,0,0,0,0,0,0,0,0,0,0],"id":1,"left_children":[1,3,5,7,9,11,13,15,17,19,21,23,25,27,-1,29,31,33,35,37,39,41,43,45,47,49,51,-1,-1,53,55,57,-1,59,-1,61,63,65,67,69,71,-1,-1,73,-1,75,-1,77,-1,79,81,83,85,-1,-1,-1,-1,-1,-1,-1,-1,-1,-1,-1,-1,-1,-1,-1,-1,-1,-1,-1,-1,-1,-1,-1,-1,-1,-1,-1,-1,-1,-1,-1,-1,-1,-1],"loss_changes":[8.546313E3,2.6618872E2,5.9993652E1,8.0751465E1,8.684819E1,8.160131E1,2.9589844E-1,1.4577637E1,1.3692667E2,6.5537445E1,4.9318314E0,2.3622135E1,1.731955E1,7.413182E-1,0E0,5.5595703E0,1.5306222E1,4.1093964E1,1.6285141E1,1.360733E1,2.5990547E1,2.8155894E0,1.8671341E0,1.587864E1,2.368082E0,1.6200972E1,9.432678E0,0E0,0E0,1.5883789E0,2.4211477E1,3.4490516E0,0E0,1.3419647E1,0E0,1.8964075E1,1.0084068E1,2.2840347E0,1.5960557E1,1.0471534E1,2.5688705E0,0E0,0E0,4.6315484E0,0E0,5.972828E0,0E0,1.8368912E-1,0E0,1.1924696E1,5.636917E0,1.1173225E1,1.1014099E0,0E0,0E0,0E0,0E0,0E0,0E0,0E0,0E0,0E0,0E0,0E0,0E0,0E0,0E0,0E0,0E0,0E0,0E0,0E0,0E0,0E0,0E0,0E0,0E0,0E0,0E0,0E0,0E0,0E0,0E0,0E0,0E0,0E0,0E0],"parents":[2147483647,0,0,1,1,2,2,3,3,4,4,5,5,6,6,7,7,8,8,9,9,10,10,11,11,12,12,13,13,15,15,16,16,17,17,18,18,19,19,20,20,21,21,22,22,23,23,24,24,25,25,26,26,29,29,30,30,31,31,33,33,35,35,36,36,37,37,38,38,39,39,40,40,43,43,45,45,47,47,49,49,50,50,51,51,52,52],"right_children":[2,4,6,8,10,12,14,16,18,20,22,24,26,28,-1,30,32,34,36,38,40,42,44,46,48,50,52,-1,-1,54,56,58,-1,60,-1,62,64,66,68,70,72,-1,-1,74,-1,76,-1,78,-1,80,82,84,86,-1,-1,-1,-1,-1,-1,-1,-1,-1,-1,-1,-1,-1,-1,-1,-1,-1,-1,-1,-1,-1,-1,-1,-1,-1,-1,-1,-1,-1,-1,-1,-1,-1,-1],"split_conditions":[1.01E0,1.5533E2,1.09E0,9.5E-1,7.8E-1,3.16E1,8.53333E0,3.3E2,6.6E1,2.68E2,2.82E3,8.28E0,1.225E3,7.31E0,-5.430638E-1,1.1E3,8.3E-1,1.58E2,7.61E0,2.4E2,4.5E-1,1.99E2,8.3E-1,7.5E1,2.502E2,7.93E0,7.72E0,-3.4715056E-2,-3.4706593E-1,6.01E0,7.4E-1,6.1E2,-5.663048E-1,5.03E2,-7.60423E-1,6.1E1,5.6E2,2.272E3,4.5E-1,1.5154E3,6.22E2,1.2975997E-1,-3.5433382E-1,6.948E2,-6.34475E-1,1.07E0,-4.9864998E-1,1.25E2,-4.2782832E-2,3.8E1,1.03E0,4.7E1,1E0,2.1705793E-1,3.3967578E-1,3.129843E-1,-6.4661103E-1,2.7300838E-1,-1.7069684E-1,3.2568115E-1,-3.574366E-1,1.820639E-1,-4.8024735E-1,-3.284944E-1,-8.187889E-1,3.3365846E-1,-4.7621038E-2,2.8433204E-1,-4.8716363E-1,1.4141488E-1,-4.2043033E-1,-6.2678665E-1,-9.766529E-2,1.1793441E-1,-4.6091923E-1,3.191998E-1,2.8920567E-2,-1.7468247E-1,-5.974478E-1,1.7786837E-1,-3.4985232E-1,-5.6061197E-2,-6.371565E-1,4.3954983E-2,-4.995973E-1,-7.4291754E-1,-2.8193834E-1],"split_indices":[15,12,15,15,15,12,0,9,12,12,4,3,4,3,0,10,15,9,3,9,15,12,15,9,6,3,3,0,0,3,15,6,0,7,0,9,10,10,15,8,6,0,0,7,0,15,0,10,0,9,15,12,17,0,0,0,0,0,0,0,0,0,0,0,0,0,0,0,0,0,0,0,0,0,0,0,0,0,0,0,0,0,0,0,0,0,0],"split_type":[0,0,0,0,0,0,0,0,0,0,0,0,0,0,0,0,0,0,0,0,0,0,0,0,0,0,0,0,0,0,0,0,0,0,0,0,0,0,0,0,0,0,0,0,0,0,0,0,0,0,0,0,0,0,0,0,0,0,0,0,0,0,0,0,0,0,0,0,0,0,0,0,0,0,0,0,0,0,0,0,0,0,0,0,0,0,0],"sum_hessian":[5.137932E3,3.5702703E3,1.5676617E3,3.4656082E3,1.0466229E2,1.145368E2,1.4531249E3,3.3364507E3,1.2915744E2,7.289655E1,3.176574E1,3.6618393E1,7.79184E1,2.9721255E0,1.4501528E3,3.3263665E3,1.0084241E1,9.649333E1,3.2664112E1,4.5175247E1,2.772131E1,2.540882E0,2.9224857E1,3.0813206E1,5.805188E0,2.3787579E1,5.413083E1,1.2383856E0,1.7337399E0,3.3136128E3,1.2753487E1,7.75113E0,2.3331108E0,9.407217E1,2.4211676E0,1.3793188E1,1.8870924E1,3.7452E1,7.7232475E0,1.2957372E1,1.4763937E1,1.5213933E0,1.0194889E0,4.2226806E0,2.5002176E1,2.8757334E1,2.0558705E0,4.5546236E0,1.2505647E0,1.3996412E1,9.791166E0,2.7820723E1,2.6310104E1,1.6246754E1,3.2973662E3,1.0765571E1,1.9879161E0,6.4840555E0,1.2670748E0,9.219615E1,1.8760115E0,6.806295E0,6.9868927E0,9.397465E0,9.473459E0,3.622461E1,1.2273916E0,3.9552956E0,3.767952E0,9.835188E0,3.1221836E0,1.3454665E1,1.3092718E0,1.3263111E0,2.8963695E0,1.9096546E1,9.660789E0,1.2014705E0,3.353153E0,8.49601E0,5.5004025E0,2.0630624E0,7.7281036E0,3.760369E0,2.4060352E1,2.415964E1,2.1504657E0],"tree_param":{"num_deleted":"0","num_feature":"49","num_nodes":"87","size_leaf_vector":"1"}},{"base_weights":[1.9014561E-1,9.9713975E-1,-1.3958989E0,1.0573832E0,-2.2073418E-1,-6.3067794E-1,-1.4413226E0,1.0836312E0,4.1880843E-1,3.130097E-1,-1.5476818E0,2.8712267E-1,-1.230921E0,-1.1933131E0,-4.4235772E-1,1.0880966E0,3.2552323E-1,7.171335E-1,-1.4640521E0,7.864648E-1,-7.8178775E-1,-6.7466664E-1,-1.6979742E0,7.7474445E-1,-1.3765221E0,-7.1442765E-1,-1.6200334E0,-7.1070135E-1,-1.486434E0,1.089337E0,-1.0694585E-1,5.4708284E-1,-4.058769E-1,9.958378E-1,-5.500339E-1,-1.6272362E0,9.7306825E-2,9.244524E-1,-6.983301E-1,5.3560513E-1,-1.1517006E0,4.0522954E-1,-4.268401E-1,-1.657561E-1,-1.7493255E0,9.608145E-1,-6.125614E-1,7.6001145E-2,-1.6636581E0,2.8857874E-2,-1.588746E0,-6.267831E-2,-1.6711715E0,4.3894857E-1,-1.4167688E0,-6.895519E-1,-1.5300817E0,3.277137E-1,2.0686339E-1,2.2244564E-1,-2.962039E-1,3.1129366E-1,-6.492053E-2,1.3893722E-1,-3.1017503E-1,-1.5400451E-1,-5.830366E-1,3.2531297E-1,1.1261035E-1,2.3273946E-1,-4.8650035E-1,2.9537752E-1,-8.398826E-2,-1.9118087E-1,-4.8618966E-1,-5.187599E-2,2.1069567E-1,-1.5954779E-1,-5.3928703E-1,3.1169647E-1,-1.1168326E-1,1.1033216E-1,-4.0970346E-1,-8.182964E-2,-5.793457E-1,2.492638E-1,-2.7008018E-1,-1.0849313E-1,-5.380527E-1,-3.3083114E-1,-5.469553E-1,2.7230838E-1,-2.4359307E-1,-4.9686024E-1,-2.5334114E-1,1.2872912E-1,-2.9500383E-1,-4.6183255E-1,-1.5445282E-1],"categories":[],"categories_nodes":[],"categories_segments":[],"categories_sizes":[],"default_left":[0,0,0,0,0,0,0,0,0,0,0,0,0,0,0,0,0,0,0,0,0,0,0,0,0,0,0,0,0,0,0,0,0,0,0,0,0,0,0,0,0,0,0,0,0,0,0,0,0,0,0,0,0,0,0,0,0,0,0,0,0,0,0,0,0,0,0,0,0,0,0,0,0,0,0,0,0,0,0,0,0,0,0,0,0,0,0,0,0,0,0,0,0,0,0,0,0,0,0],"id":2,"left_children":[1,3,5,7,9,11,13,15,17,19,21,23,25,27,-1,29,31,33,35,37,39,41,43,45,47,49,51,53,55,57,-1,59,-1,61,63,65,-1,67,69,71,73,75,-1,-1,77,79,81,-1,83,85,87,-1,89,91,93,95,97,-1,-1,-1,-1,-1,-1,-1,-1,-1,-1,-1,-1,-1,-1,-1,-1,-1,-1,-1,-1,-1,-1,-1,-1,-1,-1,-1,-1,-1,-1,-1,-1,-1,-1,-1,-1,-1,-1,-1,-1,-1,-1],"loss_changes":[5.338169E3,2.0303076E2,4.797998E1,4.369507E1,9.33437E1,4.4750828E1,9.167236E0,8.208496E0,6.037837E1,4.9511242E1,3.8111496E0,2.7574728E1,8.6729355E0,2.1848633E1,0E0,4.8928223E0,6.778817E0,3.298497E1,4.839718E0,1.4240086E1,1.4739721E1,6.399695E0,8.90419E-1,7.2768126E0,4.0562925E0,1.4866479E1,1.6069946E0,5.1840294E1,2.4167786E0,2.302002E0,0E0,5.223523E0,0E0,4.058258E0,8.912731E0,3.8299294E0,0E0,4.961849E0,9.7129755E0,2.8521047E0,4.502205E0,7.6179385E-1,0E0,0E0,7.935791E-1,2.8081741E0,3.2153964E0,0E0,1.97929E0,1.0665317E1,1.9889088E0,0E0,2.3741913E-1,1.526194E1,3.9902039E0,2.723759E0,9.890747E-2,0E0,0E0,0E0,0E0,0E0,0E0,0E0,0E0,0E0,0E0,0E0,0E0,0E0,0E0,0E0,0E0,0E0,0E0,0E0,0E0,0E0,0E0,0E0,0E0,0E0,0E0,0E0,0E0,0E0,0E0,0E0,0E0,0E0,0E0,0E0,0E0,0E0,0E0,0E0,0E0,0E0,0E0],"parents":[2147483647,0,0,1,1,2,2,3,3,4,4,5,5,6,6,7,7,8,8,9,9,10,10,11,11,12,12,13,13,15,15,16,16,17,17,18,18,19,19,20,20,21,21,22,22,23,23,24,24,25,25,26,26,27,27,28,28,29,29,31,31,33,33,34,34,35,35,37,37,38,38,39,39,40,40,41,41,44,44,45,45,46,46,48,48,49,49,50,50,52,52,53,53,54,54,55,55,56,56],"right_children":[2,4,6,8,10,12,14,16,18,20,22,24,26,28,-1,30,32,34,36,38,40,42,44,46,48,50,52,54,56,58,-1,60,-1,62,64,66,-1,68,70,72,74,76,-1,-1,78,80,82,-1,84,86,88,-1,90,92,94,96,98,-1,-1,-1,-1,-1,-1,-1,-1,-1,-1,-1,-1,-1,-1,-1,-1,-1,-1,-1,-1,-1,-1,-1,-1,-1,-1,-1,-1,-1,-1,-1,-1,-1,-1,-1,-1,-1,-1,-1,-1,-1,-1],"split_conditions":[1.01E0,3.47E3,1.07E0,9.5E-1,8.1E-1,4E1,1.14E0,1.5533E2,9.8E1,2.68E2,6.55E2,3.6E0,4.15E1,3.16E1,-4.4235772E-1,4.5E2,9E-1,7.5E1,1E0,4.5E2,2.6E-1,9.2E-1,8.4E1,7.7E1,1.25E2,7.92E0,1.27E1,7.83E0,7.12E0,2.16E2,-1.0694585E-1,8.48E0,-4.058769E-1,4.25E2,7.58E0,5.10384E1,9.7306825E-2,6.5E-1,4.5E-1,1.22E2,2.272E3,7.455E1,-4.268401E-1,-1.657561E-1,8.3E-1,1.36E2,7.72E0,7.6001145E-2,1.66E0,6.56E1,2.596E0,-6.267831E-2,7.45E0,3.49E1,8.0301E1,3.55E2,1E0,3.277137E-1,2.0686339E-1,2.2244564E-1,-2.962039E-1,3.1129366E-1,-6.492053E-2,1.3893722E-1,-3.1017503E-1,-1.5400451E-1,-5.830366E-1,3.2531297E-1,1.1261035E-1,2.3273946E-1,-4.8650035E-1,2.9537752E-1,-8.398826E-2,-1.9118087E-1,-4.8618966E-1,-5.187599E-2,2.1069567E-1,-1.5954779E-1,-5.3928703E-1,3.1169647E-1,-1.1168326E-1,1.1033216E-1,-4.0970346E-1,-8.182964E-2,-5.793457E-1,2.492638E-1,-2.7008018E-1,-1.0849313E-1,-5.380527E-1,-3.3083114E-1,-5.469553E-1,2.7230838E-1,-2.4359307E-1,-4.9686024E-1,-2.5334114E-1,1.2872912E-1,-2.9500383E-1,-4.6183255E-1,-1.5445282E-1],"split_indices":[15,4,15,15,15,12,15,12,9,12,10,5,9,12,0,9,15,12,44,9,15,15,8,9,10,3,8,3,3,9,0,3,0,7,3,12,0,15,15,9,10,1,0,0,15,11,3,0,14,12,14,0,3,9,1,10,22,0,0,0,0,0,0,0,0,0,0,0,0,0,0,0,0,0,0,0,0,0,0,0,0,0,0,0,0,0,0,0,0,0,0,0,0,0,0,0,0,0,0],"split_type":[0,0,0,0,0,0,0,0,0,0,0,0,0,0,0,0,0,0,0,0,0,0,0,0,0,0,0,0,0,0,0,0,0,0,0,0,0,0,0,0,0,0,0,0,0,0,0,0,0,0,0,0,0,0,0,0,0,0,0,0,0,0,0,0,0,0,0,0,0,0,0,0,0,0,0,0,0,0,0,0,0,0,0,0,0,0,0,0,0,0,0,0,0,0,0,0,0,0,0],"sum_hessian":[4.1685894E3,2.76308E3,1.4055094E3,2.6329695E3,1.3011082E2,7.9590164E1,1.3259192E3,2.5283472E3,1.04622154E2,9.333314E1,3.677768E1,3.1676668E1,4.7913498E1,1.6091483E2,1.1650044E3,2.513109E3,1.5238366E1,9.084722E1,1.3774934E1,6.535249E1,2.7980644E1,6.2076807E0,3.057E1,2.4909801E1,6.7668667E0,2.1805595E1,2.6107903E1,6.2097824E1,9.8817E1,2.5111987E3,1.91019E0,1.4056873E1,1.1814927E0,7.464395E1,1.6203274E1,1.2705715E1,1.0692183E0,6.0140774E1,5.211723E0,6.036077E0,2.1944567E1,2.728117E0,3.4795637E0,1.8162372E0,2.8753763E1,2.2234995E1,2.6748066E0,1.0312028E0,5.735664E0,1.2308633E1,9.496963E0,1.0909107E0,2.501699E1,2.377106E1,3.8326763E1,6.0037713E0,9.281323E1,2.490516E3,2.06825E1,1.2934874E1,1.1220001E0,7.229468E1,2.3492718E0,5.2511888E0,1.0952085E1,3.3895066E0,9.316209E0,4.582042E1,1.4320353E1,2.068734E0,3.142989E0,3.7592692E0,2.2768078E0,1.1589521E1,1.0355045E1,1.0678957E0,1.6602215E0,1.5554341E0,2.7198328E1,2.1211737E1,1.0232582E0,1.3843964E0,1.2904102E0,1.2509242E0,4.48474E0,6.6629286E0,5.6457043E0,1.7536794E0,7.743283E0,7.0205197E0,1.7996471E1,1.7491163E1,6.2798967E0,2.5686413E1,1.2640349E1,1.1530168E0,4.8507547E0,9.1453735E1,1.3594977E0],"tree_param":{"num_deleted":"0","num_feature":"49","num_nodes":"99","size_leaf_vector":"1"}},{"base_weights":[1.8449442E-1,9.571743E-1,-1.214174E0,1.0329503E0,-3.9226107E-2,-5.840009E-1,-1.2744507E0,1.0538243E0,3.097816E-1,4.2104053E-1,-1.2783145E0,-1.2774547E-2,-1.0545228E0,-1.0272818E0,-3.9071843E-1,1.0612766E0,1.6115788E-1,6.280156E-1,-1.1381938E0,8.9188194E-1,-4.8553088E-1,-7.940789E-1,-1.5573995E0,2.8249627E-1,-9.566432E-1,-4.341965E-1,-1.2365116E0,-6.142265E-1,-1.2906836E0,5.3603E-1,1.0638186E0,8.384067E-1,-5.050817E-1,8.5375917E-1,-6.4715695E-1,-2.9617185E-2,-4.9235317E-1,1.0226935E0,1.4482845E-1,2.87702E-1,-1.106872E0,-3.9827356E-1,-5.315018E-1,-4.6395594E-1,-4.9610078E-1,6.2547976E-1,-4.4894958E-1,-1.9443366E-1,-1.4092135E0,4.101853E-1,-1.0136089E0,4.1663244E-2,-1.2735991E0,7.6896E-1,-1.0321382E0,-6.6599894E-1,-3.9676896E-1,2.9201457E-1,-5.767178E-1,3.2084376E-1,2.5252354E-1,3.0706936E-1,-1.848705E-1,2.944929E-1,-1.8723902E-1,-3.153665E-1,9.6877955E-2,2.0668153E-1,-1.8114857E-1,3.1654975E-1,3.9896E-2,2.5046688E-1,-4.5721406E-1,2.1558851E-1,-2.405276E-1,-8.8607475E-2,-3.8651147E-1,5.7593945E-2,-3.6937407E-1,4.804908E-2,-2.4212141E-1,2.1322045E-1,-1.8461645E-1,2.5737262E-1,-2.5926405E-1,-1.8489215E-1,2.0750569E-1,-4.6530366E-1,-1.24953724E-1,2.6232612E-1,-2.608737E-1,-6.6951394E-2,-3.5085493E-1,-8.188464E-2,-3.8893718E-1,4.441458E-1,-1.3235998E-1,-1.465682E-1,-4.0057483E-1,3.481528E-2,-2.7098355E-1],"categories":[],"categories_nodes":[],"categories_segments":[],"categories_sizes":[],"default_left":[0,0,0,0,0,0,0,0,0,0,0,0,0,0,0,0,0,0,0,0,0,0,0,0,0,0,0,0,0,0,0,0,0,0,0,0,0,0,0,0,0,0,0,0,0,0,0,0,0,0,0,0,0,0,0,0,0,0,0,0,0,0,0,0,0,0,0,0,0,0,0,0,0,0,0,0,0,0,0,0,0,0,0,0,0,0,0,0,0,0,0,0,0,0,0,0,0,0,0,0,0],"id":3,"left_children":[1,3,5,7,9,11,13,15,17,19,21,23,25,27,-1,29,31,33,35,37,39,41,43,45,47,49,51,53,55,57,59,61,-1,63,65,67,-1,69,71,73,75,77,-1,79,-1,81,83,85,87,89,91,-1,93,95,97,99,-1,-1,-1,-1,-1,-1,-1,-1,-1,-1,-1,-1,-1,-1,-1,-1,-1,-1,-1,-1,-1,-1,-1,-1,-1,-1,-1,-1,-1,-1,-1,-1,-1,-1,-1,-1,-1,-1,-1,-1,-1,-1,-1,-1,-1],"loss_changes":[3.5662937E3,1.6052234E2,4.3862793E1,2.9491943E1,8.6759445E1,2.8037586E1,6.0594482E0,1.2598389E1,2.6903378E1,4.7808197E1,4.330551E0,1.368979E1,5.922306E0,1.1557739E1,0E0,1.9711914E0,2.2739319E1,1.4150454E1,5.8595476E0,7.0248833E0,1.8856949E1,5.911826E0,1.8742218E0,9.675857E0,3.762558E0,7.51929E0,2.4058075E0,2.7447248E1,4.814682E-1,1.3895463E1,1.4797363E0,4.1737185E0,0E0,8.279213E0,3.3473203E0,2.200681E0,0E0,1.659523E0,1.521003E1,9.019976E0,2.8010445E0,6.8558493E0,0E0,8.6174095E-1,0E0,3.1786585E0,7.545057E0,2.4896762E0,3.6497116E-1,4.693722E0,8.3564186E-1,0E0,6.215973E-1,1.0358987E1,5.2524033E0,1.0949752E0,0E0,0E0,0E0,0E0,0E0,0E0,0E0,0E0,0E0,0E0,0E0,0E0,0E0,0E0,0E0,0E0,0E0,0E0,0E0,0E0,0E0,0E0,0E0,0E0,0E0,0E0,0E0,0E0,0E0,0E0,0E0,0E0,0E0,0E0,0E0,0E0,0E0,0E0,0E0,0E0,0E0,0E0,0E0,0E0,0E0],"parents":[2147483647,0,0,1,1,2,2,3,3,4,4,5,5,6,6,7,7,8,8,9,9,10,10,11,11,12,12,13,13,15,15,16,16,17,17,18,18,19,19,20,20,21,21,22,22,23,23,24,24,25,25,26,26,27,27,28,28,29,29,30,30,31,31,33,33,34,34,35,35,37,37,38,38,39,39,40,40,41,41,43,43,45,45,46,46,47,47,48,48,49,49,50,50,52,52,53,53,54,54,55,55],"right_children":[2,4,6,8,10,12,14,16,18,20,22,24,26,28,-1,30,32,34,36,38,40,42,44,46,48,50,52,54,56,58,60,62,-1,64,66,68,-1,70,72,74,76,78,-1,80,-1,82,84,86,88,90,92,-1,94,96,98,100,-1,-1,-1,-1,-1,-1,-1,-1,-1,-1,-1,-1,-1,-1,-1,-1,-1,-1,-1,-1,-1,-1,-1,-1,-1,-1,-1,-1,-1,-1,-1,-1,-1,-1,-1,-1,-1,-1,-1,-1,-1,-1,-1,-1,-1],"split_conditions":[1.01E0,1.05E2,1.09E0,9.8E-1,8.3E-1,1.225E3,1.14E0,2.4E2,7.9E1,1.47E3,9.1E-1,8.16E0,7.46E0,3.16E1,-3.9071843E-1,6.01E0,8.3E-1,3.4E2,7.58E0,2.16E2,4.5E-1,1.5E2,7.26E0,4.3E1,2.07E1,5.76E2,2.3E1,7.58E0,7.12E0,2.8E-1,9.2E-1,6.468E2,-5.050817E-1,8.48E0,2.023E3,5.95E1,-4.9235317E-1,2.091E3,6.5E-1,1.1008E4,2.8E2,1.99E2,-5.315018E-1,1.191E3,-4.9610078E-1,7.7E1,1.03E0,2.196E2,3.6E2,9.8E1,3.4E1,4.1663244E-2,4E-1,3.2E1,7.97E0,3.7E2,-3.9676896E-1,2.9201457E-1,-5.767178E-1,3.2084376E-1,2.5252354E-1,3.0706936E-1,-1.848705E-1,2.944929E-1,-1.8723902E-1,-3.153665E-1,9.6877955E-2,2.0668153E-1,-1.8114857E-1,3.1654975E-1,3.9896E-2,2.5046688E-1,-4.5721406E-1,2.1558851E-1,-2.405276E-1,-8.8607475E-2,-3.8651147E-1,5.7593945E-2,-3.6937407E-1,4.804908E-2,-2.4212141E-1,2.1322045E-1,-1.8461645E-1,2.5737262E-1,-2.5926405E-1,-1.8489215E-1,2.0750569E-1,-4.6530366E-1,-1.24953724E-1,2.6232612E-1,-2.608737E-1,-6.6951394E-2,-3.5085493E-1,-8.188464E-2,-3.8893718E-1,4.441458E-1,-1.3235998E-1,-1.465682E-1,-4.0057483E-1,3.481528E-2,-2.7098355E-1],"split_indices":[15,12,15,15,15,4,15,9,9,10,15,3,3,12,0,3,15,7,3,9,15,9,3,12,12,10,12,3,3,15,15,6,0,3,2,12,0,7,15,4,8,12,0,10,0,9,15,6,6,9,9,0,9,9,3,10,0,0,0,0,0,0,0,0,0,0,0,0,0,0,0,0,0,0,0,0,0,0,0,0,0,0,0,0,0,0,0,0,0,0,0,0,0,0,0,0,0,0,0,0,0],"split_type":[0,0,0,0,0,0,0,0,0,0,0,0,0,0,0,0,0,0,0,0,0,0,0,0,0,0,0,0,0,0,0,0,0,0,0,0,0,0,0,0,0,0,0,0,0,0,0,0,0,0,0,0,0,0,0,0,0,0,0,0,0,0,0,0,0,0,0,0,0,0,0,0,0,0,0,0,0,0,0,0,0,0,0,0,0,0,0,0,0,0,0,0,0,0,0,0,0,0,0,0,0],"sum_hessian":[3.2978396E3,2.1244983E3,1.1733414E3,1.9743156E3,1.501828E2,1.0336651E2,1.069975E3,1.918482E3,5.5833458E1,1.099875E2,4.01953E1,4.7151028E1,5.6215477E1,1.1251629E2,9.574586E2,1.9024111E3,1.6070904E1,4.6237686E1,9.595772E0,7.240111E1,3.758639E1,1.6102112E1,2.4093191E1,3.6449287E1,1.0701741E1,1.3519344E1,4.2696133E1,4.5109478E1,6.740681E1,1.0183307E1,1.8922278E3,1.2154331E1,3.9165723E0,3.956413E1,6.673556E0,3.3254194E0,6.2703524E0,6.1298553E1,1.1102556E1,1.6985552E1,2.060084E1,1.2463378E1,3.6387336E0,2.4204745E0,2.1672716E1,2.491243E1,1.1536858E1,4.5195794E0,6.182162E0,5.6205482E0,7.8987966E0,1.049012E0,4.164712E1,1.0271915E1,3.4837563E1,4.335875E0,6.3070934E1,9.158141E0,1.0251651E0,1.8414736E3,5.0754166E1,1.1044811E1,1.1095206E0,3.6722282E1,2.8418486E0,4.652168E0,2.021388E0,1.388314E0,1.9371053E0,5.896066E1,2.3378954E0,8.2082615E0,2.8942947E0,1.2415209E1,4.5703425E0,4.245564E0,1.6355276E1,7.7448335E0,4.718544E0,1.0477846E0,1.37269E0,2.3710598E1,1.2018312E0,2.5249057E0,9.011951E0,3.268136E0,1.251443E0,4.9173465E0,1.2648153E0,4.356837E0,1.2637115E0,1.7018739E0,6.196923E0,1.2191197E0,4.0428E1,6.3279514E0,3.943964E0,1.3406731E1,2.1430832E1,1.128235E0,3.20764E0],"tree_param":{"num_deleted":"0","num_feature":"49","num_nodes":"101","size_leaf_vector":"1"}},{"base_weights":[1.7836325E-1,9.089094E-1,-1.1214476E0,1.0010945E0,-5.0916977E-4,-7.5559765E-1,-3.6044893E-1,1.0338818E0,2.7076283E-1,5.047654E-1,-8.693368E-1,5.494774E-2,-9.3649524E-1,1.037166E0,8.452578E-2,6.9357646E-1,-7.189283E-1,9.3734944E-1,-2.8051746E-1,-1.398768E-1,-1.0369613E0,7.078732E-1,-5.87329E-1,-4.411286E-1,-1.1119108E0,1.0463287E0,7.8962237E-1,2.3633884E-1,-8.420891E-1,8.102729E-1,-1.052888E0,-1.8556583E-1,-1.2657017E0,9.802764E-1,-6.5650895E-2,2.9259735E-1,-7.38713E-1,3.0321255E-1,-7.6526576E-1,-6.525039E-1,-1.3516033E0,1.0360509E0,1.9557542E-1,3.4667975E-1,-1.0582014E0,8.283197E-1,-8.771203E-1,-9.5542747E-1,-3.871383E-1,1.6111945E-1,3.147264E-1,2.7792183E-1,-2.579222E-1,-6.480777E-2,-3.2071438E-1,2.995787E-1,3.0360699E-2,-2.3804273E-2,-4.5498303E-1,2.3452516E-1,-3.2321447E-1,-5.743983E-2,-4.145376E-1,3.0050558E-1,5.200384E-2,1.7121947E-1,-1.8535122E-1,2.107178E-1,-1.7131303E-1,3.144243E-2,-2.767443E-1,1.9518948E-1,-1.7307702E-1,-1.8379387E-2,-2.8738275E-1,-5.89198E-2,-3.3137366E-1,-4.2316937E-1,-1.1201237E-1,3.5902008E-1,-2.7425239E-2,2.1489225E-1,-1.1032734E-1,2.524467E-1,-3.7866727E-2,-6.4543E-2,-3.8847664E-1,3.3059898E-1,-1.3127753E-1,-1.6620806E-1,-3.5197747E-1,-8.531237E-2,-3.530333E-1],"categories":[],"categories_nodes":[],"categories_segments":[],"categories_sizes":[],"default_left":[0,0,0,0,0,0,0,0,0,0,0,0,0,0,0,0,0,0,0,0,0,0,0,0,0,0,0,0,0,0,0,0,0,0,0,0,0,0,0,0,0,0,0,0,0,0,0,0,0,0,0,0,0,0,0,0,0,0,0,0,0,0,0,0,0,0,0,0,0,0,0,0,0,0,0,0,0,0,0,0,0,0,0,0,0,0,0,0,0,0,0,0,0],"id":4,"left_children":[1,3,5,7,9,11,-1,13,15,17,19,21,23,25,27,29,31,33,35,37,39,41,43,45,47,49,51,-1,53,55,57,59,61,63,65,67,69,71,73,75,77,79,81,83,85,87,89,91,-1,-1,-1,-1,-1,-1,-1,-1,-1,-1,-1,-1,-1,-1,-1,-1,-1,-1,-1,-1,-1,-1,-1,-1,-1,-1,-1,-1,-1,-1,-1,-1,-1,-1,-1,-1,-1,-1,-1,-1,-1,-1,-1,-1,-1],"loss_changes":[2.4497388E3,1.384491E2,2.6278564E1,3.562549E1,6.760285E1,2.488227E1,0E0,4.385498E0,2.802398E1,3.3339317E1,6.778839E0,1.376968E1,1.1544861E1,2.4163818E0,4.5960107E0,1.0350002E1,5.6504555E0,2.7774773E0,9.500324E0,3.4842975E0,4.6690636E0,2.5284567E0,7.6672E0,2.1690735E1,1.606514E0,1.3695068E0,1.3228294E1,0E0,2.0772696E-1,5.807045E0,1.3935895E0,1.0665905E1,9.5674896E-1,8.713722E-1,1.5907695E0,6.2138042E0,3.1862354E0,2.69491E0,6.3999987E-1,4.440219E0,8.750305E-1,1.8610477E0,2.4856944E0,1.5843213E0,1.9730425E0,4.0152183E0,2.094101E0,8.282303E0,0E0,0E0,0E0,0E0,0E0,0E0,0E0,0E0,0E0,0E0,0E0,0E0,0E0,0E0,0E0,0E0,0E0,0E0,0E0,0E0,0E0,0E0,0E0,0E0,0E0,0E0,0E0,0E0,0E0,0E0,0E0,0E0,0E0,0E0,0E0,0E0,0E0,0E0,0E0,0E0,0E0,0E0,0E0,0E0,0E0],"parents":[2147483647,0,0,1,1,2,2,3,3,4,4,5,5,7,7,8,8,9,9,10,10,11,11,12,12,13,13,14,14,15,15,16,16,17,17,18,18,19,19,20,20,21,21,22,22,23,23,24,24,25,25,26,26,28,28,29,29,30,30,31,31,32,32,33,33,34,34,35,35,36,36,37,37,38,38,39,39,40,40,41,41,42,42,43,43,44,44,45,45,46,46,47,47],"right_children":[2,4,6,8,10,12,-1,14,16,18,20,22,24,26,28,30,32,34,36,38,40,42,44,46,48,50,52,-1,54,56,58,60,62,64,66,68,70,72,74,76,78,80,82,84,86,88,90,92,-1,-1,-1,-1,-1,-1,-1,-1,-1,-1,-1,-1,-1,-1,-1,-1,-1,-1,-1,-1,-1,-1,-1,-1,-1,-1,-1,-1,-1,-1,-1,-1,-1,-1,-1,-1,-1,-1,-1,-1,-1,-1,-1,-1,-1],"split_conditions":[1.03E0,2.66E3,1.14E0,9.8E-1,7.8E-1,1.9E1,-3.6044893E-1,1.7882E3,5.22E1,1.47E3,5.6E2,7.98E0,7.55E0,9E-1,6E2,5E1,7.65E0,3.01472E1,4.5E-1,1E0,9.1E-1,1.53E1,1.09E0,3.28E2,3.5E2,6.01E0,1.22E2,2.3633884E-1,2.15226E1,6.3E1,3.4E1,5.1E2,1.054E3,8.374E3,4.285E3,1.1008E4,2.8E2,9.2E1,9.5E-1,7E1,7.9866E1,3.9E1,1.1E0,1.07E0,6E0,4.4E1,4.65E1,1.07E0,-3.871383E-1,1.6111945E-1,3.147264E-1,2.7792183E-1,-2.579222E-1,-6.480777E-2,-3.2071438E-1,2.995787E-1,3.0360699E-2,-2.3804273E-2,-4.5498303E-1,2.3452516E-1,-3.2321447E-1,-5.743983E-2,-4.145376E-1,3.0050558E-1,5.200384E-2,1.7121947E-1,-1.8535122E-1,2.107178E-1,-1.7131303E-1,3.144243E-2,-2.767443E-1,1.9518948E-1,-1.7307702E-1,-1.8379387E-2,-2.8738275E-1,-5.89198E-2,-3.3137366E-1,-4.2316937E-1,-1.1201237E-1,3.5902008E-1,-2.7425239E-2,2.1489225E-1,-1.1032734E-1,2.524467E-1,-3.7866727E-2,-6.4543E-2,-3.8847664E-1,3.3059898E-1,-1.3127753E-1,-1.6620806E-1,-3.5197747E-1,-8.531237E-2,-3.530333E-1],"split_indices":[15,4,15,15,15,12,0,16,9,10,10,3,3,15,10,5,3,0,15,42,15,9,15,10,10,3,9,0,0,12,12,10,4,4,4,4,8,9,15,9,1,8,15,15,12,9,9,15,0,0,0,0,0,0,0,0,0,0,0,0,0,0,0,0,0,0,0,0,0,0,0,0,0,0,0,0,0,0,0,0,0,0,0,0,0,0,0,0,0,0,0,0,0],"split_type":[0,0,0,0,0,0,0,0,0,0,0,0,0,0,0,0,0,0,0,0,0,0,0,0,0,0,0,0,0,0,0,0,0,0,0,0,0,0,0,0,0,0,0,0,0,0,0,0,0,0,0,0,0,0,0,0,0,0,0,0,0,0,0,0,0,0,0,0,0,0,0,0,0,0,0,0,0,0,0,0,0,0,0,0,0,0,0,0,0,0,0,0,0],"sum_hessian":[2.577762E3,1.6504457E3,9.273163E2,1.4984512E3,1.5199448E2,1.6834825E2,7.589681E2,1.4336726E3,6.477852E1,9.636915E1,5.562532E1,3.084367E1,1.3750458E2,1.4286378E3,5.0347595E0,4.5597607E1,1.918091E1,6.2014145E1,3.4355007E1,1.0736637E1,4.4888683E1,1.5244395E1,1.5599275E1,3.6877823E1,1.00626755E2,1.3745337E3,5.4104195E1,2.9475095E0,2.0872502E0,4.3244144E1,2.3534656E0,1.0387536E1,8.793374E0,5.9490685E1,2.5234604E0,1.5423979E1,1.8931026E1,6.585768E0,4.150869E0,2.1586351E1,2.3302332E1,8.668804E0,6.5755916E0,5.3167925E0,1.0282482E1,9.197682E0,2.768014E1,5.701191E1,4.361485E1,8.461861E0,1.3660718E3,5.036564E1,3.7385569E0,1.074655E0,1.012595E0,3.38465E1,9.397641E0,1.137178E0,1.2162876E0,5.0420475E0,5.3454885E0,1.1159812E0,7.6773925E0,5.7718E1,1.7726846E0,1.1567488E0,1.3667115E0,1.0587124E1,4.836855E0,3.463365E0,1.5467663E1,4.908844E0,1.6769242E0,1.1751345E0,2.975734E0,1.1459325E1,1.01270275E1,2.1560827E1,1.7415051E0,7.5336947E0,1.1351088E0,3.2758863E0,3.299705E0,2.2173305E0,3.099462E0,2.672714E0,7.609768E0,7.669172E0,1.5285112E0,1.4610536E1,1.3069604E1,1.4707833E1,4.2304077E1],"tree_param":{"num_deleted":"0","num_feature":"49","num_nodes":"93","size_leaf_vector":"1"}},{"base_weights":[1.7233004E-1,9.129328E-1,-9.7557503E-1,1.0080786E0,5.3213924E-2,-3.1022063E-1,-1.103301E0,1.0204892E0,1.3883215E-1,4.0022397E-1,-9.1449374E-1,1.2717801E-1,-7.011428E-1,-8.417234E-1,-3.429813E-1,1.0287808E0,5.7330936E-1,7.877701E-1,-1.1631799E0,7.3739165E-1,-4.6848398E-1,-5.5492634E-1,-1.3870319E0,3.6706463E-1,-6.435813E-1,-4.623156E-1,-1.0695834E0,-4.8195723E-1,-1.0896912E0,3.548763E-1,1.033275E0,7.707032E-1,-6.736023E-1,2.9037872E-1,-1.2030372E-1,-4.0745825E-1,-5.0341344E-1,8.4569216E-1,-6.395123E-1,3.4916165E-1,-7.367998E-1,-2.3403084E-2,-9.7420675E-1,-6.494097E-2,-1.4950567E0,7.822073E-1,2.2684714E-2,-4.3675143E-2,-1.1626459E0,4.8485894E-2,-7.545193E-1,8.583471E-3,-1.1450108E0,5.992275E-1,-8.345023E-1,-5.270282E-1,-1.1293178E0,2.7172318E-1,-4.501877E-1,3.1025657E-1,1.20009385E-1,2.8270754E-1,-1.7608255E-1,-2.4718927E-1,-4.7440976E-2,9.5379286E-2,-2.7765754E-1,3.0894262E-1,1.2286599E-1,1.8756546E-1,-3.6981544E-1,3.1642824E-1,-1.4214835E-1,6.426726E-2,-2.858093E-1,2.044043E-1,-1.4483935E-1,-7.664262E-2,-3.6558217E-1,-2.7331495E-1,-5.8310574E-1,2.9207942E-1,1.0235375E-2,2.0008042E-1,-9.894886E-2,1.6539757E-1,-1.7673276E-1,-3.796719E-1,-7.926236E-2,1.15128614E-1,-2.9455164E-1,-1.2618464E-1,-3.344501E-1,-1.2223205E-1,-3.549933E-1,3.8557994E-1,-1.9202857E-1,-1.8381054E-2,-2.8341424E-1,1.9006668E-2,-2.6515108E-1,-3.4222186E-1,-1.0351268E-1],"categories":[],"categories_nodes":[],"categories_segments":[],"categories_sizes":[],"default_left":[0,0,0,0,0,0,0,0,0,0,0,0,0,0,0,0,0,0,0,0,0,0,0,0,0,0,0,0,0,0,0,0,0,0,0,0,0,0,0,0,0,0,0,0,0,0,0,0,0,0,0,0,0,0,0,0,0,0,0,0,0,0,0,0,0,0,0,0,0,0,0,0,0,0,0,0,0,0,0,0,0,0,0,0,0,0,0,0,0,0,0,0,0,0,0,0,0,0,0,0,0,0,0],"id":5,"left_children":[1,3,5,7,9,11,13,15,17,19,21,23,25,27,-1,29,31,33,35,37,39,41,43,45,47,49,51,53,55,57,59,61,63,-1,-1,65,-1,67,69,71,73,75,77,-1,79,81,83,85,87,89,91,-1,93,95,97,99,101,-1,-1,-1,-1,-1,-1,-1,-1,-1,-1,-1,-1,-1,-1,-1,-1,-1,-1,-1,-1,-1,-1,-1,-1,-1,-1,-1,-1,-1,-1,-1,-1,-1,-1,-1,-1,-1,-1,-1,-1,-1,-1,-1,-1,-1,-1],"loss_changes":[1.706663E3,9.975006E1,6.656848E1,1.1708618E1,4.1546333E1,2.200873E1,5.939636E0,3.425171E0,1.49592E1,2.6987583E1,4.781616E0,1.157889E1,5.475563E0,7.619133E0,0E0,2.8497314E0,5.9270267E0,2.891396E0,1.6244278E0,1.037011E1,5.9710283E0,4.483568E0,1.3772869E0,6.7620463E0,4.5965285E0,6.4434834E0,2.1799374E0,1.5381774E1,5.9212494E-1,1.0106499E1,1.9604492E-1,5.082364E0,1.4379895E-1,0E0,0E0,1.693918E0,0E0,4.519886E0,4.803994E0,4.6305275E0,4.296365E0,3.5476031E0,1.6699905E0,0E0,1.4113731E0,3.0410995E0,6.3405237E0,2.9087617E0,4.019251E-1,6.097158E0,2.8234358E0,0E0,2.0375443E-1,9.479986E0,2.486784E0,1.1890167E0,4.417801E-2,0E0,0E0,0E0,0E0,0E0,0E0,0E0,0E0,0E0,0E0,0E0,0E0,0E0,0E0,0E0,0E0,0E0,0E0,0E0,0E0,0E0,0E0,0E0,0E0,0E0,0E0,0E0,0E0,0E0,0E0,0E0,0E0,0E0,0E0,0E0,0E0,0E0,0E0,0E0,0E0,0E0,0E0,0E0,0E0,0E0,0E0],"parents":[2147483647,0,0,1,1,2,2,3,3,4,4,5,5,6,6,7,7,8,8,9,9,10,10,11,11,12,12,13,13,15,15,16,16,17,17,18,18,19,19,20,20,21,21,22,22,23,23,24,24,25,25,26,26,27,27,28,28,29,29,30,30,31,31,32,32,35,35,37,37,38,38,39,39,40,40,41,41,42,42,44,44,45,45,46,46,47,47,48,48,49,49,50,50,52,52,53,53,54,54,55,55,56,56],"right_children":[2,4,6,8,10,12,14,16,18,20,22,24,26,28,-1,30,32,34,36,38,40,42,44,46,48,50,52,54,56,58,60,62,64,-1,-1,66,-1,68,70,72,74,76,78,-1,80,82,84,86,88,90,92,-1,94,96,98,100,102,-1,-1,-1,-1,-1,-1,-1,-1,-1,-1,-1,-1,-1,-1,-1,-1,-1,-1,-1,-1,-1,-1,-1,-1,-1,-1,-1,-1,-1,-1,-1,-1,-1,-1,-1,-1,-1,-1,-1,-1,-1,-1,-1,-1,-1,-1],"split_conditions":[1E0,9.6E1,1.1E0,1.98E2,8.3E-1,1.237E3,1.17E0,9.7E-1,8.5E-1,2.68E2,6.9E1,8.19E0,5.8E1,3.16E1,-3.429813E-1,6.01E0,5.88E2,6.59E2,2.35176E1,4.5E2,2.20194E1,6.1E2,1.38E2,1.05E0,2.57E1,7.64E0,2.4E1,7.58E0,7.12E0,3E-1,1.81E2,3.2E1,1.68E2,2.9037872E-1,-1.2030372E-1,2.344E3,-5.0341344E-1,6.5E-1,4.5E-1,5.6E-1,2.5E-1,7.63E0,1.65896E1,-6.494097E-2,7.68E0,5.6E1,7.05E2,1.07E0,7.1778E2,5.03E2,1.35E2,8.583471E-3,4.3E1,3.2E1,3.56E2,1.12E0,8.72836E1,2.7172318E-1,-4.501877E-1,3.1025657E-1,1.20009385E-1,2.8270754E-1,-1.7608255E-1,-2.4718927E-1,-4.7440976E-2,9.5379286E-2,-2.7765754E-1,3.0894262E-1,1.2286599E-1,1.8756546E-1,-3.6981544E-1,3.1642824E-1,-1.4214835E-1,6.426726E-2,-2.858093E-1,2.044043E-1,-1.4483935E-1,-7.664262E-2,-3.6558217E-1,-2.7331495E-1,-5.8310574E-1,2.9207942E-1,1.0235375E-2,2.0008042E-1,-9.894886E-2,1.6539757E-1,-1.7673276E-1,-3.796719E-1,-7.926236E-2,1.15128614E-1,-2.9455164E-1,-1.2618464E-1,-3.344501E-1,-1.2223205E-1,-3.549933E-1,3.8557994E-1,-1.9202857E-1,-1.8381054E-2,-2.8341424E-1,1.9006668E-2,-2.6515108E-1,-3.4222186E-1,-1.0351268E-1],"split_indices":[15,12,15,9,15,4,15,15,15,12,9,3,9,12,0,3,10,6,0,9,0,7,13,15,12,3,12,3,3,15,9,5,13,0,0,4,0,15,15,15,15,3,0,0,3,12,4,15,16,7,8,0,8,9,4,15,1,0,0,0,0,0,0,0,0,0,0,0,0,0,0,0,0,0,0,0,0,0,0,0,0,0,0,0,0,0,0,0,0,0,0,0,0,0,0,0,0,0,0,0,0,0,0],"split_type":[0,0,0,0,0,0,0,0,0,0,0,0,0,0,0,0,0,0,0,0,0,0,0,0,0,0,0,0,0,0,0,0,0,0,0,0,0,0,0,0,0,0,0,0,0,0,0,0,0,0,0,0,0,0,0,0,0,0,0,0,0,0,0,0,0,0,0,0,0,0,0,0,0,0,0,0,0,0,0,0,0,0,0,0,0,0,0,0,0,0,0,0,0,0,0,0,0,0,0,0,0,0,0],"sum_hessian":[2.0054564E3,1.2191151E3,7.8634125E2,1.0974833E3,1.21631935E2,1.2719293E2,6.591483E2,1.0818629E3,1.562027E1,8.9959724E1,3.1672215E1,6.0346523E1,6.6846405E1,9.029335E1,5.68855E2,1.0608916E3,2.09714E1,1.0688137E1,4.9321327E0,6.491552E1,2.5044203E1,1.922087E1,1.2451344E1,4.642213E1,1.3924391E1,4.192498E1,2.4921429E1,3.804258E1,5.225077E1,7.5578794E0,1.0533336E3,1.8434944E1,2.536455E0,9.442862E0,1.245276E0,2.7244937E0,2.2076387E0,6.0539577E1,4.375943E0,6.113394E0,1.8930809E1,8.941507E0,1.0279363E1,1.3057766E0,1.1145567E1,2.04721E1,2.5950031E1,6.9621115E0,6.96228E0,1.5559491E1,2.6365488E1,1.6415613E0,2.3279867E1,9.182373E0,2.8860207E1,4.3785834E0,4.7872185E1,6.22241E0,1.3354694E0,1.0511841E3,2.1496224E0,1.663728E1,1.7976644E0,1.500324E0,1.0361309E0,1.2960697E0,1.428424E0,4.1611885E1,1.8927694E1,1.3799304E0,2.996013E0,3.139816E0,2.9735777E0,3.5039153E0,1.5426894E1,3.3378377E0,5.6036696E0,3.1274607E0,7.1519017E0,6.158902E0,4.986665E0,1.6061493E1,4.4106073E0,8.86201E0,1.708802E1,3.3245938E0,3.6375175E0,5.8800154E0,1.0822645E0,1.2212859E1,3.3466322E0,1.4809168E1,1.1556321E1,1.7236935E0,2.1556173E1,5.886676E0,3.2956972E0,3.794487E0,2.506572E1,1.9592321E0,2.4193513E0,4.6737026E1,1.1351585E0],"tree_param":{"num_deleted":"0","num_feature":"49","num_nodes":"103","size_leaf_vector":"1"}},{"base_weights":[1.6491958E-1,8.414238E-1,-9.7200066E-1,9.5496386E-1,-2.2735601E-2,-5.137414E-1,-1.0855101E0,1.0083455E0,3.164108E-1,3.5252565E-1,-7.9631734E-1,3.215631E-2,-7.4170464E-1,-1.9640777E-2,-1.0886133E0,1.0146195E0,-2.3622756E-1,4.8966017E-1,-1.1993011E0,7.5989616E-1,-2.4655657E-1,-3.1931102E-1,-1.0874639E0,7.608343E-1,-3.798823E-1,-2.322667E-1,-8.6656886E-1,-8.8338E-1,-3.3014163E-1,2.922561E-1,1.0204091E0,1.7643577E-1,-6.881705E-1,7.73946E-1,-3.0503196E-1,-1.185384E-1,-4.253836E-1,9.284584E-1,1.17974E-2,1.046688E-1,-8.144501E-1,5.8868743E-2,-3.3542842E-1,-6.8570715E-1,-1.3771E0,3.260959E-1,3.617787E-1,2.2729938E-1,-5.9788585E-1,2.4255021E-1,-2.9431072E-1,-6.563349E-1,-1.1007667E0,1.2887782E-1,-1.0014908E0,2.252794E-1,-3.9992177E-1,3.074847E-1,1.74781E-1,-2.7501095E-2,-2.7265325E-1,2.623834E-1,-1.4500365E-1,9.13262E-2,-4.016219E-1,2.9364154E-1,9.016622E-3,2.0174152E-1,-2.7366406E-1,1.6682963E-1,-1.81712E-1,1.987656E-2,-2.7836373E-1,1.3797165E-1,-2.906672E-1,1.3586031E-1,-2.7716473E-1,-5.8522165E-2,-4.404854E-1,2.4269632E-1,-7.185833E-2,1.087384E-1,-2.4143772E-1,1.581339E-1,-2.2267164E-1,-1.0284115E-1,-3.3094442E-1,-1.2548766E-1,-3.4353942E-1,3.0515355E-1,-2.1540157E-1,-3.2420643E-2,-3.0960628E-1],"categories":[],"categories_nodes":[],"categories_segments":[],"categories_sizes":[],"default_left":[0,0,0,0,0,0,0,0,0,0,0,0,0,0,0,0,0,0,0,0,0,0,0,0,0,0,0,0,0,0,0,0,0,0,0,0,0,0,0,0,0,0,0,0,0,0,0,0,0,0,0,0,0,0,0,0,0,0,0,0,0,0,0,0,0,0,0,0,0,0,0,0,0,0,0,0,0,0,0,0,0,0,0,0,0,0,0,0,0,0,0,0,0],"id":6,"left_children":[1,3,5,7,9,11,13,15,17,19,21,23,25,-1,27,29,31,33,35,37,39,41,43,45,47,49,51,53,-1,55,57,-1,59,61,63,-1,-1,65,67,69,71,73,-1,75,77,-1,79,-1,81,83,-1,85,87,89,91,-1,-1,-1,-1,-1,-1,-1,-1,-1,-1,-1,-1,-1,-1,-1,-1,-1,-1,-1,-1,-1,-1,-1,-1,-1,-1,-1,-1,-1,-1,-1,-1,-1,-1,-1,-1,-1,-1],"loss_changes":[1.2009281E3,9.605725E1,2.9744995E1,2.9171204E1,3.356114E1,1.4652258E1,1.4038086E0,6.470337E0,1.8496792E1,1.919606E1,4.896021E0,1.0973517E1,5.0760803E0,0E0,1.5844727E-1,3.0229492E0,2.1980171E0,1.4224114E1,7.207918E-1,5.8663387E0,6.5240307E0,4.8162E0,1.7354317E0,1.3230877E0,6.255698E0,6.530006E0,2.540203E0,3.7689514E0,0E0,6.7529664E0,9.6795654E-1,0E0,3.8658297E-1,6.2302322E0,1.1136825E1,0E0,0E0,1.6904869E0,6.463843E0,7.0172358E0,1.3051634E0,5.2360377E0,0E0,3.574658E0,1.0489979E0,0E0,2.1916578E0,0E0,4.3044624E0,3.6508887E0,0E0,4.8606567E0,4.2538452E-1,3.7899468E0,6.352196E-1,0E0,0E0,0E0,0E0,0E0,0E0,0E0,0E0,0E0,0E0,0E0,0E0,0E0,0E0,0E0,0E0,0E0,0E0,0E0,0E0,0E0,0E0,0E0,0E0,0E0,0E0,0E0,0E0,0E0,0E0,0E0,0E0,0E0,0E0,0E0,0E0,0E0,0E0],"parents":[2147483647,0,0,1,1,2,2,3,3,4,4,5,5,6,6,7,7,8,8,9,9,10,10,11,11,12,12,14,14,15,15,16,16,17,17,18,18,19,19,20,20,21,21,22,22,23,23,24,24,25,25,26,26,27,27,29,29,30,30,32,32,33,33,34,34,37,37,38,38,39,39,40,40,41,41,43,43,44,44,46,46,48,48,49,49,51,51,52,52,53,53,54,54],"right_children":[2,4,6,8,10,12,14,16,18,20,22,24,26,-1,28,30,32,34,36,38,40,42,44,46,48,50,52,54,-1,56,58,-1,60,62,64,-1,-1,66,68,70,72,74,-1,76,78,-1,80,-1,82,84,-1,86,88,90,92,-1,-1,-1,-1,-1,-1,-1,-1,-1,-1,-1,-1,-1,-1,-1,-1,-1,-1,-1,-1,-1,-1,-1,-1,-1,-1,-1,-1,-1,-1,-1,-1,-1,-1,-1,-1,-1,-1],"split_conditions":[1.03E0,9.6E1,1.12E0,9.5E-1,8.3E-1,2.57E1,8.53333E0,3.3E2,1.5E2,1.47E3,9.1E-1,7.83E0,7.43E0,-1.9640777E-2,1.17E0,6.01E0,7.5E-1,8.15E0,1.8125E1,2.16E2,5.8E-1,2.7533E1,7.63E0,5.2E1,1.07E0,5.5E2,4.98E1,1.06E1,-3.3014163E-1,4.2E-1,1.81E2,1.7643577E-1,2.021E3,2.95E2,3.22E2,-1.185384E-1,-4.253836E-1,2.091E3,6.5E-1,1.01E2,9.3E0,1.99E2,-3.3542842E-1,6.27E2,2.4E0,3.260959E-1,7.57E0,2.2729938E-1,2.5116E2,5.8E1,-2.9431072E-1,8.01E0,5.1E1,7.65E0,7.27E0,2.252794E-1,-3.9992177E-1,3.074847E-1,1.74781E-1,-2.7501095E-2,-2.7265325E-1,2.623834E-1,-1.4500365E-1,9.13262E-2,-4.016219E-1,2.9364154E-1,9.016622E-3,2.0174152E-1,-2.7366406E-1,1.6682963E-1,-1.81712E-1,1.987656E-2,-2.7836373E-1,1.3797165E-1,-2.906672E-1,1.3586031E-1,-2.7716473E-1,-5.8522165E-2,-4.404854E-1,2.4269632E-1,-7.185833E-2,1.087384E-1,-2.4143772E-1,1.581339E-1,-2.2267164E-1,-1.0284115E-1,-3.3094442E-1,-1.2548766E-1,-3.4353942E-1,3.0515355E-1,-2.1540157E-1,-3.2420643E-2,-3.0960628E-1],"split_indices":[15,12,15,15,15,12,0,9,9,10,15,3,3,0,15,3,15,3,0,9,15,0,3,11,15,10,12,8,0,15,9,0,2,8,10,0,0,7,15,9,9,12,0,10,9,0,3,0,16,9,0,3,7,3,12,0,0,0,0,0,0,0,0,0,0,0,0,0,0,0,0,0,0,0,0,0,0,0,0,0,0,0,0,0,0,0,0,0,0,0,0,0,0],"split_type":[0,0,0,0,0,0,0,0,0,0,0,0,0,0,0,0,0,0,0,0,0,0,0,0,0,0,0,0,0,0,0,0,0,0,0,0,0,0,0,0,0,0,0,0,0,0,0,0,0,0,0,0,0,0,0,0,0,0,0,0,0,0,0,0,0,0,0,0,0,0,0,0,0,0,0,0,0,0,0,0,0,0,0,0,0,0,0,0,0,0,0,0,0],"sum_hessian":[1.5593448E3,9.777889E2,5.81556E2,8.6414557E2,1.13643326E2,1.16549545E2,4.6500647E2,7.969437E2,6.720185E1,7.688906E1,3.6754265E1,3.4586086E1,8.196346E1,1.4773431E0,4.635291E2,7.9313025E2,3.8134577E0,6.0915962E1,6.285891E0,4.560776E1,3.1281301E1,1.4725368E1,2.2028898E1,1.2187083E1,2.2399004E1,1.6697771E1,6.5265686E1,2.9444336E1,4.3408478E2,6.7155414E0,7.8641473E2,1.2436746E0,2.5697832E0,4.488524E1,1.6030724E1,1.9437937E0,4.3420973E0,3.7024323E1,8.583441E0,1.983168E1,1.1449619E1,1.0622503E1,4.1028643E0,1.0638971E1,1.1389927E1,5.757513E0,6.4295697E0,3.204161E0,1.9194843E1,1.0631858E1,6.0659127E0,3.6396168E1,2.886952E1,3.0670764E0,2.637726E1,5.6570716E0,1.0584698E0,7.7701624E2,9.39844E0,1.0761814E0,1.4936018E0,4.1839703E1,3.0455356E0,1.0528716E1,5.5020065E0,3.4974827E1,2.0494938E0,5.1636324E0,3.4198086E0,1.2258693E1,7.572988E0,1.3538342E0,1.0095785E1,8.038398E0,2.5841057E0,1.6845815E0,8.95439E0,1.040555E0,1.0349372E1,3.4891815E0,2.9403884E0,3.2691975E0,1.5925646E1,8.608972E0,2.0228868E0,2.2426556E1,1.3969613E1,2.3986654E0,2.6470854E1,1.3987913E0,1.6682851E0,1.0215894E0,2.535567E1],"tree_param":{"num_deleted":"0","num_feature":"49","num_nodes":"93","size_leaf_vector":"1"}},{"base_weights":[1.5682459E-1,8.5030174E-1,-8.406409E-1,9.729534E-1,3.623639E-2,-1.5611619E-1,-1.0028925E0,9.94214E-1,1.8925668E-1,3.6257723E-1,-5.375941E-1,2.811458E-1,-4.9456605E-1,-6.800858E-1,-3.2130173E-1,1.0056567E0,3.4089708E-1,7.385491E-1,-9.7205544E-1,6.1237305E-1,-6.4215106E-1,-2.6057878E-1,-1.0820705E0,5.635184E-1,-6.107722E-1,-2.3281604E-1,-9.4057614E-1,-3.1263283E-1,-1.0001976E0,2.2023931E-1,1.0131683E0,8.3197117E-1,-3.2422745E-1,8.7455434E-1,-8.85536E-2,3.4600653E-2,-1.3158188E0,7.823058E-1,-4.050569E-1,1.8681397E-1,-9.3911964E-1,4.0568355E-3,-8.705602E-1,-2.8950272E-2,-1.2163457E0,7.807878E-1,-5.3100216E-1,2.4037072E-1,-8.567584E-1,2.8155482E-1,-7.357558E-1,-1.0173559E0,-2.1418558E-1,5.76399E-1,-6.3313377E-1,-1.023191E0,-4.9688164E-2,2.459275E-1,-2.436552E-1,3.044529E-1,1.02604225E-1,7.0359774E-2,2.6865783E-1,6.0225155E-2,-3.1094444E-1,2.824307E-1,3.042491E-2,-1.552997E-1,-4.7136143E-1,2.918319E-1,1.0457487E-1,1.3108566E-1,-2.4497671E-1,2.376158E-1,-1.499442E-1,-1.2379331E-2,-3.2675683E-1,9.2031926E-2,-2.1432583E-1,4.3582834E-2,-3.2646745E-1,-4.4440016E-2,-4.1218928E-1,2.7355707E-1,5.265508E-2,-2.5378328E-2,-2.5594926E-1,1.8282026E-1,-7.045407E-2,-1.1075434E-1,-3.6586705E-1,1.1986034E-1,-2.1706042E-1,-2.5677416E-1,-3.222257E-3,-6.754644E-2,-3.165773E-1,1.0564443E-1,-2.0313297E-1,4.2021117E-1,-8.363178E-3,-1.40299415E-2,-2.5515458E-1,-3.1147328E-1,-7.6516606E-2],"categories":[],"categories_nodes":[],"categories_segments":[],"categories_sizes":[],"default_left":[0,0,0,0,0,0,0,0,0,0,0,0,0,0,0,0,0,0,0,0,0,0,0,0,0,0,0,0,0,0,0,0,0,0,0,0,0,0,0,0,0,0,0,0,0,0,0,0,0,0,0,0,0,0,0,0,0,0,0,0,0,0,0,0,0,0,0,0,0,0,0,0,0,0,0,0,0,0,0,0,0,0,0,0,0,0,0,0,0,0,0,0,0,0,0,0,0,0,0,0,0,0,0,0,0],"id":7,"left_children":[1,3,5,7,9,11,13,15,17,19,21,23,25,27,-1,29,31,33,35,37,39,41,43,45,47,49,51,53,55,57,59,61,63,65,-1,-1,67,69,71,73,75,77,79,-1,81,83,85,87,89,91,93,95,97,99,101,103,-1,-1,-1,-1,-1,-1,-1,-1,-1,-1,-1,-1,-1,-1,-1,-1,-1,-1,-1,-1,-1,-1,-1,-1,-1,-1,-1,-1,-1,-1,-1,-1,-1,-1,-1,-1,-1,-1,-1,-1,-1,-1,-1,-1,-1,-1,-1,-1,-1],"loss_changes":[8.4132654E2,7.159027E1,5.525296E1,1.01987915E1,1.7979008E1,1.4461274E1,8.13504E0,4.192505E0,1.2008842E1,1.5737007E1,4.971637E0,1.1139224E1,6.1919785E0,8.271389E0,0E0,3.291504E0,4.1748595E0,2.027464E0,2.4377465E0,8.870817E0,3.2923627E0,3.9427776E0,1.3950243E0,8.280209E0,2.4643407E0,9.503414E0,8.964367E-1,1.0460535E1,5.7021713E-1,4.9497895E0,3.1585693E-1,6.177187E-2,2.3759127E0,4.9264622E-1,0E0,0E0,1.5020084E-1,3.191267E0,3.0386863E0,2.1302953E0,1.2334471E0,4.1372967E0,1.7917571E0,0E0,1.4754381E0,2.0614376E0,8.012892E-1,7.0419E-1,1.06879E0,2.4814773E0,1.5977621E0,2.9696655E-1,1.071278E0,4.9762793E0,3.3405027E0,1.6671753E-1,0E0,0E0,0E0,0E0,0E0,0E0,0E0,0E0,0E0,0E0,0E0,0E0,0E0,0E0,0E0,0E0,0E0,0E0,0E0,0E0,0E0,0E0,0E0,0E0,0E0,0E0,0E0,0E0,0E0,0E0,0E0,0E0,0E0,0E0,0E0,0E0,0E0,0E0,0E0,0E0,0E0,0E0,0E0,0E0,0E0,0E0,0E0,0E0,0E0],"parents":[2147483647,0,0,1,1,2,2,3,3,4,4,5,5,6,6,7,7,8,8,9,9,10,10,11,11,12,12,13,13,15,15,16,16,17,17,18,18,19,19,20,20,21,21,22,22,23,23,24,24,25,25,26,26,27,27,28,28,29,29,30,30,31,31,32,32,33,33,36,36,37,37,38,38,39,39,40,40,41,41,42,42,44,44,45,45,46,46,47,47,48,48,49,49,50,50,51,51,52,52,53,53,54,54,55,55],"right_children":[2,4,6,8,10,12,14,16,18,20,22,24,26,28,-1,30,32,34,36,38,40,42,44,46,48,50,52,54,56,58,60,62,64,66,-1,-1,68,70,72,74,76,78,80,-1,82,84,86,88,90,92,94,96,98,100,102,104,-1,-1,-1,-1,-1,-1,-1,-1,-1,-1,-1,-1,-1,-1,-1,-1,-1,-1,-1,-1,-1,-1,-1,-1,-1,-1,-1,-1,-1,-1,-1,-1,-1,-1,-1,-1,-1,-1,-1,-1,-1,-1,-1,-1,-1,-1,-1,-1,-1],"split_conditions":[1E0,9.6E1,1.09E0,1.58E2,7.8E-1,2.2E1,1.17E0,9.8E-1,8.8E-1,2.272E3,2.74E1,3.6E0,5E2,3.16E1,-3.2130173E-1,6.01E0,5.6E1,4.5E2,4.02E0,3.3E2,2.5E-1,1.191E3,1.314E3,1.76E2,1.8E1,7.82E0,1E0,7.58E0,7.69E2,3E-1,9.06E0,7.4975E1,7.98E0,6.71E2,-8.85536E-2,3.4600653E-2,1.84001E1,2.235968E2,4.5E-1,1.22E2,2.215E1,9.5E-1,6.948E2,-2.8950272E-2,2.5E1,5.8E1,6.8E1,1.05E0,5E1,1.69E2,8.02548E1,2.68E2,5.8E1,2.23E2,1.2E1,8.701306E1,-4.9688164E-2,2.459275E-1,-2.436552E-1,3.044529E-1,1.02604225E-1,7.0359774E-2,2.6865783E-1,6.0225155E-2,-3.1094444E-1,2.824307E-1,3.042491E-2,-1.552997E-1,-4.7136143E-1,2.918319E-1,1.0457487E-1,1.3108566E-1,-2.4497671E-1,2.376158E-1,-1.499442E-1,-1.2379331E-2,-3.2675683E-1,9.2031926E-2,-2.1432583E-1,4.3582834E-2,-3.2646745E-1,-4.4440016E-2,-4.1218928E-1,2.7355707E-1,5.265508E-2,-2.5378328E-2,-2.5594926E-1,1.8282026E-1,-7.045407E-2,-1.1075434E-1,-3.6586705E-1,1.1986034E-1,-2.1706042E-1,-2.5677416E-1,-3.222257E-3,-6.754644E-2,-3.165773E-1,1.0564443E-1,-2.0313297E-1,4.2021117E-1,-8.363178E-3,-1.40299415E-2,-2.5515458E-1,-3.1147328E-1,-7.6516606E-2],"split_indices":[15,12,15,9,15,9,15,15,15,10,14,5,10,12,0,3,12,9,14,9,15,10,16,8,12,3,44,3,6,15,3,1,3,6,0,0,0,12,15,9,0,15,7,0,9,12,12,15,5,9,1,6,9,10,12,1,0,0,0,0,0,0,0,0,0,0,0,0,0,0,0,0,0,0,0,0,0,0,0,0,0,0,0,0,0,0,0,0,0,0,0,0,0,0,0,0,0,0,0,0,0,0,0,0,0],"split_type":[0,0,0,0,0,0,0,0,0,0,0,0,0,0,0,0,0,0,0,0,0,0,0,0,0,0,0,0,0,0,0,0,0,0,0,0,0,0,0,0,0,0,0,0,0,0,0,0,0,0,0,0,0,0,0,0,0,0,0,0,0,0,0,0,0,0,0,0,0,0,0,0,0,0,0,0,0,0,0,0,0,0,0,0,0,0,0,0,0,0,0,0,0,0,0,0,0,0,0,0,0,0,0,0,0],"sum_hessian":[1.2142494E3,7.1635724E2,4.978921E2,6.223894E2,9.396785E1,9.577752E1,4.021146E2,6.056892E2,1.670016E1,6.013619E1,3.3831665E1,4.1862442E1,5.3915077E1,7.197769E1,3.301369E2,5.947333E2,1.0955932E1,1.1584711E1,5.1154475E0,4.847486E1,1.16613245E1,2.3403278E1,1.0428386E1,3.207576E1,9.786681E0,3.4934853E1,1.8980225E1,3.4431168E1,3.754652E1,5.921309E0,5.88812E2,6.158295E0,4.7976365E0,1.037383E1,1.2108814E0,1.3883415E0,3.7271059E0,4.1735268E1,6.739595E0,3.173546E0,8.487779E0,1.7014864E1,6.388415E0,1.4564954E0,8.97189E0,2.7002275E1,5.0734863E0,2.1993804E0,7.5873003E0,1.748877E1,1.7446083E1,1.6803522E1,2.1767035E0,8.911972E0,2.5519196E1,3.631986E1,1.226663E0,3.8763394E0,2.0449696E0,5.868357E2,1.9762882E0,1.0430921E0,5.115203E0,3.1753457E0,1.6222911E0,9.3475275E0,1.026302E0,1.6372454E0,2.0898604E0,2.813645E1,1.3598818E1,2.192301E0,4.5472937E0,1.6051354E0,1.5684106E0,1.3980894E0,7.0896893E0,1.2374238E1,4.640626E0,1.1859902E0,5.2024245E0,1.4030389E0,7.568852E0,2.1779486E1,5.222789E0,2.6558955E0,2.417591E0,1.0790684E0,1.1203121E0,4.0977654E0,3.489535E0,1.6190752E1,1.2980176E0,1.48109E1,2.6351829E0,1.0841268E0,1.5719396E1,1.0866325E0,1.090071E0,3.2121844E0,5.699787E0,7.230552E0,1.8288643E1,3.527689E1,1.0429689E0],"tree_param":{"num_deleted":"0","num_feature":"49","num_nodes":"105","size_leaf_vector":"1"}},{"base_weights":[1.4786321E-1,7.660446E-1,-8.6005205E-1,9.086644E-1,-3.848471E-2,-3.708442E-1,-1.0258601E0,9.91673E-1,2.7514538E-1,4.3368733E-1,-4.1714358E-1,-1.3644479E-1,-8.2516193E-1,-7.014351E-1,-3.1488964E-1,1.0016083E0,2.0001243E-1,6.1317587E-1,-3.4182987E-1,7.3904765E-1,-4.2766523E-1,-2.1841033E-1,-9.5013016E-1,2.2134879E-1,-6.653934E-1,-2.9766315E-1,-9.4774914E-1,1.0942098E-1,-9.348232E-1,1.0053724E0,-9.160195E-2,2.5201204E-1,-3.470746E-1,7.312373E-1,-3.22164E-1,1.12559125E-1,-1.467104E0,8.772768E-1,-2.1087998E-1,-6.211707E-1,1.43971E-1,-3.5317697E-2,-8.6890835E-1,-4.8739976E-1,-1.1514297E0,4.6538794E-1,-5.7622635E-1,2.1052407E-1,-7.921142E-1,4.2057487E-1,-2.7987376E-1,-6.178555E-1,-3.3046952E-1,4.1229442E-1,-4.9056363E-1,-8.190894E-2,-2.97483E-1,9.3852304E-2,3.039108E-1,2.5659066E-1,-1.5963286E-1,2.2474045E-1,-1.3466872E-1,-5.203806E-1,-9.5736854E-2,-6.1595296E-3,2.8163826E-1,1.0108587E-1,-1.9481872E-1,1.110057E-2,-2.5925976E-1,1.2228035E-1,-1.7380586E-1,-4.755635E-3,-3.0296114E-1,8.696287E-2,-2.6381117E-1,-7.463876E-2,-3.7696272E-1,1.991269E-1,-1.441612E-2,8.248193E-2,-2.3199491E-1,3.1826803E-1,-2.092229E-1,-2.8386468E-1,-7.3949E-2,-4.4713113E-2,2.1239373E-1,9.5917396E-2,-2.265462E-1,1.483873E-2,-2.2452034E-1],"categories":[],"categories_nodes":[],"categories_segments":[],"categories_sizes":[],"default_left":[0,0,0,0,0,0,0,0,0,0,0,0,0,0,0,0,0,0,0,0,0,0,0,0,0,0,0,0,0,0,0,0,0,0,0,0,0,0,0,0,0,0,0,0,0,0,0,0,0,0,0,0,0,0,0,0,0,0,0,0,0,0,0,0,0,0,0,0,0,0,0,0,0,0,0,0,0,0,0,0,0,0,0,0,0,0,0,0,0,0,0,0,0],"id":8,"left_children":[1,3,5,7,9,11,13,15,17,19,21,23,25,27,-1,29,31,33,35,37,39,41,43,45,47,49,51,53,55,57,-1,-1,-1,59,-1,61,63,65,67,69,-1,71,73,75,77,79,81,83,85,87,-1,89,-1,-1,91,-1,-1,-1,-1,-1,-1,-1,-1,-1,-1,-1,-1,-1,-1,-1,-1,-1,-1,-1,-1,-1,-1,-1,-1,-1,-1,-1,-1,-1,-1,-1,-1,-1,-1,-1,-1,-1,-1],"loss_changes":[5.941626E2,6.784152E1,2.9031006E1,2.6126404E1,1.6262058E1,9.828536E0,1.3479309E0,3.2876892E0,1.2627178E1,1.0973535E1,5.1335125E0,1.2028278E1,1.7595558E0,4.1642866E0,0E0,2.4603271E0,6.830579E0,8.518024E0,1.1269221E1,4.1610966E0,2.2717848E0,4.498445E0,6.8664837E-1,7.7029877E0,3.0060625E0,3.774006E0,5.96159E-1,4.994308E0,3.5956478E-1,2.000763E0,0E0,0E0,0E0,6.235483E0,0E0,6.197337E0,1.3866262E0,1.4899616E0,1.33657E0,1.5834086E0,0E0,7.6379175E0,9.832711E-1,2.020514E0,5.0346565E-1,3.0672197E0,1.7888794E0,3.8459668E0,1.6633625E0,7.878459E-1,0E0,1.5645738E0,0E0,0E0,6.7723763E-1,0E0,0E0,0E0,0E0,0E0,0E0,0E0,0E0,0E0,0E0,0E0,0E0,0E0,0E0,0E0,0E0,0E0,0E0,0E0,0E0,0E0,0E0,0E0,0E0,0E0,0E0,0E0,0E0,0E0,0E0,0E0,0E0,0E0,0E0,0E0,0E0,0E0,0E0],"parents":[2147483647,0,0,1,1,2,2,3,3,4,4,5,5,6,6,7,7,8,8,9,9,10,10,11,11,12,12,13,13,15,15,16,16,17,17,18,18,19,19,20,20,21,21,22,22,23,23,24,24,25,25,26,26,27,27,28,28,29,29,33,33,35,35,36,36,37,37,38,38,39,39,41,41,42,42,43,43,44,44,45,45,46,46,47,47,48,48,49,49,51,51,54,54],"right_children":[2,4,6,8,10,12,14,16,18,20,22,24,26,28,-1,30,32,34,36,38,40,42,44,46,48,50,52,54,56,58,-1,-1,-1,60,-1,62,64,66,68,70,-1,72,74,76,78,80,82,84,86,88,-1,90,-1,-1,92,-1,-1,-1,-1,-1,-1,-1,-1,-1,-1,-1,-1,-1,-1,-1,-1,-1,-1,-1,-1,-1,-1,-1,-1,-1,-1,-1,-1,-1,-1,-1,-1,-1,-1,-1,-1,-1,-1],"split_conditions":[1.03E0,2.66E3,1.12E0,9.2E-1,6.5E-1,4.62E1,1.17E0,2.16E2,6.3E1,3.56E2,1.69E2,7.98E0,3.45E2,1.98E1,-3.1488964E-1,1.02E3,8.5E-1,8.8E0,8.01E0,4.5E2,1.37E2,6.251E3,8.4E2,4.7E1,8E0,7.86E0,7.52E0,7.21E0,1.05E0,6.01E0,-9.160195E-2,2.5201204E-1,-3.470746E-1,1.5E2,-3.22164E-1,4.65E1,5.06E2,4.8E1,4.5E-1,2.5E-1,1.43971E-1,9.1E-1,4.32E2,8.4E-1,7.09E0,3.91E2,1.05E0,1.76E2,8.1229E1,2.1E0,-2.7987376E-1,8.165E1,-3.3046952E-1,4.1229442E-1,7.65E0,-8.190894E-2,-2.97483E-1,9.3852304E-2,3.039108E-1,2.5659066E-1,-1.5963286E-1,2.2474045E-1,-1.3466872E-1,-5.203806E-1,-9.5736854E-2,-6.1595296E-3,2.8163826E-1,1.0108587E-1,-1.9481872E-1,1.110057E-2,-2.5925976E-1,1.2228035E-1,-1.7380586E-1,-4.755635E-3,-3.0296114E-1,8.696287E-2,-2.6381117E-1,-7.463876E-2,-3.7696272E-1,1.991269E-1,-1.441612E-2,8.248193E-2,-2.3199491E-1,3.1826803E-1,-2.092229E-1,-2.8386468E-1,-7.3949E-2,-4.4713113E-2,2.1239373E-1,9.5917396E-2,-2.265462E-1,1.483873E-2,-2.2452034E-1],"split_indices":[15,4,15,15,15,12,15,9,12,12,9,3,10,8,0,10,15,3,3,9,14,4,10,9,12,3,3,3,14,3,0,0,0,9,0,9,6,8,15,15,0,15,8,15,3,6,15,6,1,14,0,7,0,0,3,0,0,0,0,0,0,0,0,0,0,0,0,0,0,0,0,0,0,0,0,0,0,0,0,0,0,0,0,0,0,0,0,0,0,0,0,0,0],"split_type":[0,0,0,0,0,0,0,0,0,0,0,0,0,0,0,0,0,0,0,0,0,0,0,0,0,0,0,0,0,0,0,0,0,0,0,0,0,0,0,0,0,0,0,0,0,0,0,0,0,0,0,0,0,0,0,0,0,0,0,0,0,0,0,0,0,0,0,0,0,0,0,0,0,0,0,0,0,0,0,0,0,0,0,0,0,0,0,0,0,0,0,0,0],"sum_hessian":[9.5154065E2,5.899491E2,3.6159158E2,5.0100583E2,8.8943275E1,9.2351074E1,2.692405E2,4.4246524E2,5.8540585E1,3.9519173E1,4.9424107E1,6.1777893E1,3.057318E1,2.046432E1,2.487762E2,4.367192E2,5.7460184E0,3.7823742E1,2.0716845E1,2.9280764E1,1.0238407E1,3.7027534E1,1.239657E1,3.719788E1,2.4580013E1,6.411662E0,2.4161516E1,4.692481E0,1.5771838E1,4.3569513E2,1.0240808E0,4.1632476E0,1.582771E0,3.5879433E1,1.9443084E0,1.5398753E1,5.3180904E0,2.5627977E1,3.6527858E0,8.699192E0,1.5392154E0,2.971741E1,7.310127E0,4.7951493E0,7.601421E0,2.880173E1,8.396152E0,3.0230205E0,2.1556993E1,3.1678748E0,3.2437873E0,9.278493E0,1.4883024E1,1.0944877E0,3.5979934E0,1.7053728E0,1.4066465E1,5.2263436E0,4.3046878E2,3.2965134E1,2.9142992E0,7.059941E0,8.338812E0,3.898642E0,1.4194483E0,1.6861328E0,2.3941845E1,1.7269421E0,1.9258437E0,2.5745394E0,6.1246524E0,1.6519258E1,1.319815E1,1.194409E0,6.115718E0,1.6948117E0,3.1003375E0,1.1440517E0,6.4573693E0,2.0564043E1,8.237686E0,1.5043536E0,6.891798E0,1.4740022E0,1.5490184E0,1.6236914E1,5.32008E0,1.223796E0,1.9440788E0,1.0154603E0,8.263033E0,1.4238932E0,2.1741002E0],"tree_param":{"num_deleted":"0","num_feature":"49","num_nodes":"93","size_leaf_vector":"1"}},{"base_weights":[1.3730386E-1,6.757626E-1,-8.842713E-1,8.8514286E-1,5.5192593E-2,-4.872752E-1,-3.1013095E-1,9.760673E-1,1.9872868E-1,4.832103E-1,-4.0307242E-1,3.242916E-2,-6.9842255E-1,1.2183773E-1,9.8920274E-1,4.0054664E-1,-4.5900685E-1,8.6896443E-1,-1.6640677E-1,-2.0317261E-1,-1.0786885E0,5.130318E-1,-4.618016E-1,-1.8082091E-1,-9.035746E-1,6.547028E-1,-2.9393998E-1,9.9508506E-1,-4.3936647E-2,5.486974E-1,-8.232566E-1,-3.3798642E-2,-2.7329412E-1,9.504462E-1,1.04867615E-1,8.3867714E-2,-6.115606E-1,1.9594913E-2,-7.4713284E-1,-4.324602E-1,-1.4225794E0,6.851245E-1,-1.506362E-1,1.7174731E-1,-7.46611E-1,6.837782E-1,-6.298254E-1,-6.5434366E-1,-3.145276E-1,2.3972683E-1,3.1576805E-2,2.994446E-1,5.243485E-2,1.993982E-1,-1.989927E-1,-2.8758124E-1,-7.3926866E-2,1.7261338E-1,-1.3981743E-1,2.968683E-1,-1.1597814E-2,1.9558796E-1,-8.562933E-2,1.2732683E-1,-1.3920781E-1,1.0837816E-1,-2.5756705E-1,5.446666E-2,-2.6999247E-1,-1.18922144E-1,-3.0829424E-1,-2.1017533E-2,-2.2970243E-1,-1.6805133E-1,-4.7870544E-1,3.087052E-1,4.9969573E-2,2.2674039E-1,-1.15135886E-1,-1.6352767E-2,-2.9789048E-1,3.0874166E-1,-4.90689E-2,-2.3248242E-1,9.1958776E-2,2.0286189E-1,-2.4438195E-1],"categories":[],"categories_nodes":[],"categories_segments":[],"categories_sizes":[],"default_left":[0,0,0,0,0,0,0,0,0,0,0,0,0,0,0,0,0,0,0,0,0,0,0,0,0,0,0,0,0,0,0,0,0,0,0,0,0,0,0,0,0,0,0,0,0,0,0,0,0,0,0,0,0,0,0,0,0,0,0,0,0,0,0,0,0,0,0,0,0,0,0,0,0,0,0,0,0,0,0,0,0,0,0,0,0,0,0],"id":9,"left_children":[1,3,5,7,9,11,-1,13,15,17,19,21,23,25,27,29,31,33,35,37,39,41,43,45,47,49,-1,51,-1,53,55,57,-1,59,61,63,65,67,69,71,73,75,-1,77,79,81,83,85,-1,-1,-1,-1,-1,-1,-1,-1,-1,-1,-1,-1,-1,-1,-1,-1,-1,-1,-1,-1,-1,-1,-1,-1,-1,-1,-1,-1,-1,-1,-1,-1,-1,-1,-1,-1,-1,-1,-1],"loss_changes":[4.1362912E2,6.3913406E1,1.490358E1,2.2774078E1,2.476295E1,8.023092E0,0E0,3.5229187E0,6.064512E0,1.6488138E1,8.023993E0,5.467066E0,5.346493E0,4.197592E0,2.2810974E0,6.694768E0,2.0577826E0,2.4580345E0,2.8519876E0,5.8713045E0,2.4301815E0,2.3770285E0,2.1819808E0,6.633697E0,6.464653E-1,2.873578E-1,0E0,6.25E-1,0E0,4.8421764E0,8.5302114E-2,2.0161319E0,0E0,1.4696732E0,1.2713907E0,3.3635144E0,2.512978E0,5.4153533E0,9.766927E-1,6.946157E-1,3.7617683E-1,1.6784515E0,0E0,1.699148E0,1.316565E0,1.9069309E0,1.7373142E0,4.011095E0,0E0,0E0,0E0,0E0,0E0,0E0,0E0,0E0,0E0,0E0,0E0,0E0,0E0,0E0,0E0,0E0,0E0,0E0,0E0,0E0,0E0,0E0,0E0,0E0,0E0,0E0,0E0,0E0,0E0,0E0,0E0,0E0,0E0,0E0,0E0,0E0,0E0,0E0,0E0],"parents":[2147483647,0,0,1,1,2,2,3,3,4,4,5,5,7,7,8,8,9,9,10,10,11,11,12,12,13,13,14,14,15,15,16,16,17,17,18,18,19,19,20,20,21,21,22,22,23,23,24,24,25,25,27,27,29,29,30,30,31,31,33,33,34,34,35,35,36,36,37,37,38,38,39,39,40,40,41,41,43,43,44,44,45,45,46,46,47,47],"right_children":[2,4,6,8,10,12,-1,14,16,18,20,22,24,26,28,30,32,34,36,38,40,42,44,46,48,50,-1,52,-1,54,56,58,-1,60,62,64,66,68,70,72,74,76,-1,78,80,82,84,86,-1,-1,-1,-1,-1,-1,-1,-1,-1,-1,-1,-1,-1,-1,-1,-1,-1,-1,-1,-1,-1,-1,-1,-1,-1,-1,-1,-1,-1,-1,-1,-1,-1,-1,-1,-1,-1,-1,-1],"split_conditions":[1.07E0,6.6E1,1.17E0,1E0,7.8E-1,1.95E1,-3.1013095E-1,6.01E0,6.1E1,2.235968E2,8.07E0,7.98E0,7.49E0,2.78E1,3.3E2,5E1,7.72E0,3.3E2,1.28E2,1.22E2,2.3E1,4.7E1,1.09E0,3.28E2,7.81E0,3E2,-2.9393998E-1,9.06E0,-4.3936647E-2,4.82E2,4.014E2,3.89E1,-2.7329412E-1,8.374E3,1.37E2,5.8E-1,2.01E2,1.03E0,8E2,9.8E-1,8.2497E2,1.98E1,-1.506362E-1,2.2E0,6E0,2.3E1,6.22E2,2.13E2,-3.145276E-1,2.3972683E-1,3.1576805E-2,2.994446E-1,5.243485E-2,1.993982E-1,-1.989927E-1,-2.8758124E-1,-7.3926866E-2,1.7261338E-1,-1.3981743E-1,2.968683E-1,-1.1597814E-2,1.9558796E-1,-8.562933E-2,1.2732683E-1,-1.3920781E-1,1.0837816E-1,-2.5756705E-1,5.446666E-2,-2.6999247E-1,-1.18922144E-1,-3.0829424E-1,-2.1017533E-2,-2.2970243E-1,-1.6805133E-1,-4.7870544E-1,3.087052E-1,4.9969573E-2,2.2674039E-1,-1.15135886E-1,-1.6352767E-2,-2.9789048E-1,3.0874166E-1,-4.90689E-2,-2.3248242E-1,9.1958776E-2,2.0286189E-1,-2.4438195E-1],"split_indices":[15,12,15,15,15,12,0,3,9,12,3,3,3,8,9,5,3,9,9,9,9,9,15,10,3,16,0,3,0,7,6,12,0,4,12,15,6,15,10,15,16,8,0,9,12,9,6,10,0,0,0,0,0,0,0,0,0,0,0,0,0,0,0,0,0,0,0,0,0,0,0,0,0,0,0,0,0,0,0,0,0,0,0,0,0,0,0],"split_type":[0,0,0,0,0,0,0,0,0,0,0,0,0,0,0,0,0,0,0,0,0,0,0,0,0,0,0,0,0,0,0,0,0,0,0,0,0,0,0,0,0,0,0,0,0,0,0,0,0,0,0,0,0,0,0,0,0,0,0,0,0,0,0,0,0,0,0,0,0,0,0,0,0,0,0,0,0,0,0,0,0,0,0,0,0,0,0],"sum_hessian":[7.498626E2,4.9126294E2,2.5859964E2,3.6700806E2,1.2425486E2,7.190746E1,1.866922E2,3.2370694E2,4.3301132E1,6.421959E1,6.003527E1,2.1019018E1,5.0888443E1,5.057867E0,3.1864908E2,3.3433502E1,9.867632E0,4.0081078E1,2.4138512E1,4.733162E1,1.2703653E1,1.0637145E1,1.0381873E1,1.4978603E1,3.590984E1,3.682387E0,1.3754798E0,3.1713022E2,1.5188433E0,3.0315254E1,3.1182485E0,5.638148E0,4.2294836E0,3.5998398E1,4.082678E0,1.597093E1,8.167582E0,3.4263638E1,1.3067979E1,5.196366E0,7.5072875E0,9.373255E0,1.2638903E0,3.3428316E0,7.0390415E0,4.94113E0,1.0037474E1,1.5227207E1,2.0682632E1,2.5562809E0,1.1261063E0,3.1573425E2,1.3959765E0,2.8080181E1,2.2350729E0,1.9895788E0,1.1286696E0,2.202751E0,3.435397E0,3.4628532E1,1.3698654E0,1.4207548E0,2.661923E0,9.98802E0,5.982911E0,1.5601494E0,6.607432E0,2.9814993E1,4.448646E0,6.879599E0,6.18838E0,3.068901E0,2.127465E0,1.9631109E0,5.5441766E0,5.0439095E0,4.3293457E0,1.4538484E0,1.8889832E0,2.168433E0,4.870609E0,3.3579435E0,1.5831865E0,8.839859E0,1.1976142E0,1.2908473E0,1.3936359E1],"tree_param":{"num_deleted":"0","num_feature":"49","num_nodes":"87","size_leaf_vector":"1"}},{"base_weights":[1.2547049E-1,8.014099E-1,-6.021629E-1,9.608369E-1,-2.2671547E-2,-1.5602726E-1,-9.853377E-1,9.806023E-1,1.9384168E-1,2.4848242E-1,-4.1540208E-1,-1.539039E-2,-7.755773E-1,-5.987307E-1,-3.0645484E-1,1.10371895E-1,9.972904E-1,6.5289384E-1,-5.4227346E-1,5.791368E-1,-4.4209206E-1,-9.4137454E-1,-1.8042724E-1,2.3602876E-1,-4.3415663E-1,1.8272549E-2,-9.355404E-1,2.2521372E-1,-8.240707E-1,2.2198214E-1,-6.227711E-1,3.015406E-1,3.8060635E-1,2.3803592E-1,1.9446246E-2,1.3220343E-1,-3.3191323E-1,7.425649E-1,-2.6651326E-1,1.3414505E-1,-5.869563E-1,8.109079E-2,-1.3094867E0,5.078886E-1,-5.3124654E-1,6.410774E-1,1.9545509E-2,-2.3971097E-1,-1.084741E0,-4.836545E-1,1.7035338E-1,-2.2455446E-2,-9.831474E-1,3.0055815E-1,-2.038808E-1,-2.2705263E-1,-2.7637812E-1,6.0237575E-2,-3.484189E-1,2.1400449E-1,-1.2656075E-1,2.52745E-1,4.3611735E-2,1.0284938E-1,-1.814307E-1,-1.09808E-2,-2.2469325E-1,-4.7130877E-1,-1.3551728E-1,2.2292478E-1,-4.362972E-2,-1.4447225E-2,-2.4033497E-1,2.3888722E-1,-2.019138E-1,5.1503994E-2,-2.2429062E-1,6.814746E-2,-1.5785849E-1,-1.1068098E-1,-3.8411108E-1,-1.7119132E-2,-1.962658E-1,-7.377653E-2,-3.1303066E-1,5.778897E-2,-1.6193333E-1],"categories":[],"categories_nodes":[],"categories_segments":[],"categories_sizes":[],"default_left":[0,0,0,0,0,0,0,0,0,0,0,0,0,0,0,0,0,0,0,0,0,0,0,0,0,0,0,0,0,0,0,0,0,0,0,0,0,0,0,0,0,0,0,0,0,0,0,0,0,0,0,0,0,0,0,0,0,0,0,0,0,0,0,0,0,0,0,0,0,0,0,0,0,0,0,0,0,0,0,0,0,0,0,0,0,0,0],"id":10,"left_children":[1,3,5,7,9,11,13,15,17,19,21,23,25,27,-1,29,31,33,35,37,39,41,43,45,47,49,51,53,55,-1,57,-1,59,-1,-1,-1,-1,61,63,-1,65,-1,67,69,71,73,75,77,79,81,-1,-1,83,-1,-1,85,-1,-1,-1,-1,-1,-1,-1,-1,-1,-1,-1,-1,-1,-1,-1,-1,-1,-1,-1,-1,-1,-1,-1,-1,-1,-1,-1,-1,-1,-1,-1],"loss_changes":[2.9533392E2,4.0909348E1,4.9297516E1,3.763504E0,5.579476E0,1.1737378E1,1.5623779E0,3.5784912E0,2.9891372E0,7.345313E0,2.4722667E0,1.178068E1,3.1824398E0,3.1036644E0,0E0,3.1856449E0,8.224945E-1,3.8307643E-1,2.451241E0,3.1592298E0,1.6304517E0,3.1926312E0,4.1367273E0,6.121625E0,5.0484743E0,1.6983485E0,7.7726746E-1,3.6046197E0,5.193777E-1,0E0,1.6839126E0,0E0,1.5661483E0,0E0,0E0,0E0,0E0,9.647913E-1,1.0742943E0,0E0,8.254175E-1,0E0,4.2379093E-1,1.0173489E0,1.4080405E0,5.499445E0,5.5697293E0,4.612345E0,8.4004784E-1,1.9823968E-1,0E0,0E0,6.1429405E-1,0E0,0E0,5.088592E-1,0E0,0E0,0E0,0E0,0E0,0E0,0E0,0E0,0E0,0E0,0E0,0E0,0E0,0E0,0E0,0E0,0E0,0E0,0E0,0E0,0E0,0E0,0E0,0E0,0E0,0E0,0E0,0E0,0E0,0E0,0E0],"parents":[2147483647,0,0,1,1,2,2,3,3,4,4,5,5,6,6,7,7,8,8,9,9,10,10,11,11,12,12,13,13,15,15,16,16,17,17,18,18,19,19,20,20,21,21,22,22,23,23,24,24,25,25,26,26,27,27,28,28,30,30,32,32,37,37,38,38,40,40,42,42,43,43,44,44,45,45,46,46,47,47,48,48,49,49,52,52,55,55],"right_children":[2,4,6,8,10,12,14,16,18,20,22,24,26,28,-1,30,32,34,36,38,40,42,44,46,48,50,52,54,56,-1,58,-1,60,-1,-1,-1,-1,62,64,-1,66,-1,68,70,72,74,76,78,80,82,-1,-1,84,-1,-1,86,-1,-1,-1,-1,-1,-1,-1,-1,-1,-1,-1,-1,-1,-1,-1,-1,-1,-1,-1,-1,-1,-1,-1,-1,-1,-1,-1,-1,-1,-1,-1],"split_conditions":[9.2E-1,8E2,1.12E0,2.16E2,6.7E-1,6E2,1.17E0,6.01E0,8.3E-1,2.272E3,7.515E1,7.98E0,7.21E0,7.21E0,-3.0645484E-1,3E-1,1.23E2,5.98E2,2.35176E1,4.5E2,7.28E0,7.06651E1,3.47E3,1.03E0,3.9E1,7.8831E1,1.3E0,3.15E2,1.9E0,2.2198214E-1,3.2695E2,3.015406E-1,1E0,2.3803592E-1,1.9446246E-2,1.3220343E-1,-3.3191323E-1,8.09E0,3.7E2,1.3414505E-1,2.5E-1,8.109079E-2,5.23E2,8.8E-1,4.3E1,1.69E2,6.1E1,1.03E0,3.2E1,7.131E1,1.7035338E-1,-2.2455446E-2,7.2431E1,3.0055815E-1,-2.038808E-1,7.65E0,-2.7637812E-1,6.0237575E-2,-3.484189E-1,2.1400449E-1,-1.2656075E-1,2.52745E-1,4.3611735E-2,1.0284938E-1,-1.814307E-1,-1.09808E-2,-2.2469325E-1,-4.7130877E-1,-1.3551728E-1,2.2292478E-1,-4.362972E-2,-1.4447225E-2,-2.4033497E-1,2.3888722E-1,-2.019138E-1,5.1503994E-2,-2.2429062E-1,6.814746E-2,-1.5785849E-1,-1.1068098E-1,-3.8411108E-1,-1.7119132E-2,-1.962658E-1,-7.377653E-2,-3.1303066E-1,5.778897E-2,-1.6193333E-1],"split_indices":[15,10,15,9,15,10,15,3,15,10,1,3,3,3,0,15,12,6,0,9,3,1,4,15,9,1,14,10,9,0,16,0,5,0,0,0,0,3,13,0,15,0,13,15,9,9,9,15,12,9,0,0,1,0,0,3,0,0,0,0,0,0,0,0,0,0,0,0,0,0,0,0,0,0,0,0,0,0,0,0,0,0,0,0,0,0,0],"split_type":[0,0,0,0,0,0,0,0,0,0,0,0,0,0,0,0,0,0,0,0,0,0,0,0,0,0,0,0,0,0,0,0,0,0,0,0,0,0,0,0,0,0,0,0,0,0,0,0,0,0,0,0,0,0,0,0,0,0,0,0,0,0,0,0,0,0,0,0,0,0,0,0,0,0,0,0,0,0,0,0,0,0,0,0,0,0,0],"sum_hessian":[5.98491E2,3.1021423E2,2.882768E2,2.597894E2,5.042486E1,1.3384566E2,1.5443114E2,2.529913E2,6.7980814E0,3.0046839E1,2.0378021E1,1.0991905E2,2.3926607E1,1.4716648E1,1.3971448E2,4.903478E0,2.4808783E2,4.2566357E0,2.5414455E0,2.0427368E1,9.619472E0,5.3642645E0,1.5013756E1,6.8955734E1,4.0963318E1,4.161259E0,1.9765347E1,3.1606066E0,1.1556042E1,2.6330981E0,2.2703798E0,2.4434952E2,3.738304E0,3.1536245E0,1.1030111E0,1.0064701E0,1.5349753E0,1.7221153E1,3.2062142E0,1.0552412E0,8.56423E0,1.3118589E0,4.052406E0,4.917595E0,1.0096161E1,2.333455E1,4.562118E1,3.259102E1,8.372299E0,2.2375953E0,1.9236642E0,1.1707941E0,1.8594553E1,1.6430478E0,1.5175587E0,2.0849252E0,9.471116E0,1.1457427E0,1.1246372E0,2.7210863E0,1.0172176E0,1.4400941E1,2.8202126E0,1.1396629E0,2.0665514E0,2.2266514E0,6.337579E0,2.4682596E0,1.5841463E0,3.514861E0,1.4027338E0,4.0409613E0,6.0552E0,2.1222033E1,2.1125176E0,3.871925E1,6.901933E0,1.2472411E1,2.0118608E1,2.4164493E0,5.95585E0,1.0203098E0,1.2172855E0,1.7896109E0,1.6804943E1,1.0541995E0,1.0307257E0],"tree_param":{"num_deleted":"0","num_feature":"49","num_nodes":"87","size_leaf_vector":"1"}},{"base_weights":[1.1322893E-1,7.7759576E-1,-5.2110255E-1,9.373084E-1,-1.1536458E-1,-1.1902377E-1,-9.6693057E-1,9.7053087E-1,3.3682015E-2,3.016386E-1,-3.350551E-1,2.0578353E-1,-3.7737936E-1,-5.407479E-1,-3.0345845E-1,-7.15647E-2,9.9638927E-1,4.7292486E-1,-7.415422E-1,7.597541E-1,-1.1735374E-1,-7.947596E-1,-1.23183586E-1,5.559669E-1,-1.0421742E-1,-2.0985632E-1,-8.542078E-1,1.4896244E-1,-8.128021E-1,5.8461833E-1,-2.7828464E-1,3.0033535E-1,2.3610914E-2,2.1978714E-1,-5.1370703E-2,-2.6198473E-2,-3.0026448E-1,3.3464257E-2,2.6229087E-1,1.6507192E-1,-1.873759E-1,-3.8748343E-2,-9.3147117E-1,4.2871964E-1,-3.7630168E-1,8.005536E-1,-1.387163E-1,4.147267E-1,-3.7855485E-1,-9.146679E-2,-8.359781E-1,-5.599016E-1,-3.7411714E-1,5.8343583E-1,-1.7377636E-1,-5.026727E-2,-2.643263E-1,2.6054926E-2,2.195658E-1,1.59831E-1,-1.9149901E-1,-7.789255E-2,-3.3839595E-1,1.9175991E-1,-3.929853E-2,1.1912704E-2,-1.8568486E-1,2.6628828E-1,-8.677545E-2,3.190309E-2,-2.5505808E-1,1.7064033E-1,-1.7395517E-1,4.925477E-2,-2.3266824E-1,9.7024605E-2,-1.1497524E-1,-4.7671452E-2,-2.8424057E-1,-1.0264682E-2,-2.1620743E-1,2.9461104E-1,-4.3163065E-2],"categories":[],"categories_nodes":[],"categories_segments":[],"categories_sizes":[],"default_left":[0,0,0,0,0,0,0,0,0,0,0,0,0,0,0,0,0,0,0,0,0,0,0,0,0,0,0,0,0,0,0,0,0,0,0,0,0,0,0,0,0,0,0,0,0,0,0,0,0,0,0,0,0,0,0,0,0,0,0,0,0,0,0,0,0,0,0,0,0,0,0,0,0,0,0,0,0,0,0,0,0,0,0],"id":11,"left_children":[1,3,5,7,9,11,13,15,17,19,21,23,25,27,-1,29,31,33,35,37,39,41,43,45,47,49,51,53,55,57,-1,-1,-1,-1,-1,-1,-1,-1,-1,59,-1,-1,61,63,65,67,69,71,73,75,77,79,-1,81,-1,-1,-1,-1,-1,-1,-1,-1,-1,-1,-1,-1,-1,-1,-1,-1,-1,-1,-1,-1,-1,-1,-1,-1,-1,-1,-1,-1,-1],"loss_changes":[2.045792E2,3.391394E1,4.4420006E1,6.0070343E0,3.4773417E0,1.1135276E1,1.6895599E0,5.299408E0,3.132796E0,2.6310654E0,2.2992132E0,6.465495E0,5.7115307E0,2.6158705E0,0E0,3.705197E0,7.4302673E-1,1.1000582E0,4.8002136E-1,3.8212442E-1,1.2180486E0,5.695329E-1,2.6801105E0,4.8471146E0,4.734166E0,4.0670824E0,1.4808512E0,1.7952793E0,2.7930117E-1,2.1505713E-1,0E0,0E0,0E0,0E0,0E0,0E0,0E0,0E0,0E0,2.0505848E0,0E0,0E0,5.162163E-1,8.066802E-1,1.3261251E0,2.2270432E0,1.5045513E0,2.1067433E0,4.771786E0,5.950683E0,5.111575E-1,1.0394976E0,0E0,1.1220737E0,0E0,0E0,0E0,0E0,0E0,0E0,0E0,0E0,0E0,0E0,0E0,0E0,0E0,0E0,0E0,0E0,0E0,0E0,0E0,0E0,0E0,0E0,0E0,0E0,0E0,0E0,0E0,0E0,0E0],"parents":[2147483647,0,0,1,1,2,2,3,3,4,4,5,5,6,6,7,7,8,8,9,9,10,10,11,11,12,12,13,13,15,15,16,16,17,17,18,18,19,19,20,20,21,21,22,22,23,23,24,24,25,25,26,26,27,27,28,28,29,29,39,39,42,42,43,43,44,44,45,45,46,46,47,47,48,48,49,49,50,50,51,51,53,53],"right_children":[2,4,6,8,10,12,14,16,18,20,22,24,26,28,-1,30,32,34,36,38,40,42,44,46,48,50,52,54,56,58,-1,-1,-1,-1,-1,-1,-1,-1,-1,60,-1,-1,62,64,66,68,70,72,74,76,78,80,-1,82,-1,-1,-1,-1,-1,-1,-1,-1,-1,-1,-1,-1,-1,-1,-1,-1,-1,-1,-1,-1,-1,-1,-1,-1,-1,-1,-1,-1,-1],"split_conditions":[9E-1,1.5533E2,1.12E0,2.4E2,4.5E-1,3.9E1,1.17E0,6.01E0,8.1E-1,3.56E2,2.867E2,1.07E0,7.99E0,1.98E1,-3.0345845E-1,9E0,9.3E2,4.5E2,7.76E0,7.39833E1,2.85545E1,2.1823889E1,2.73E1,3.6E0,7.74E0,1.09E0,3.49E1,7.65E0,1.05E0,2.1E1,-2.7828464E-1,3.0033535E-1,2.3610914E-2,2.1978714E-1,-5.1370703E-2,-2.6198473E-2,-3.0026448E-1,3.3464257E-2,2.6229087E-1,1.28E2,-1.873759E-1,-3.8748343E-2,2.02E3,2.091E3,7.57E0,1.69E2,8.85E0,6.1E1,1.69E2,3.678E1,3.7E1,9.8E-1,-3.7411714E-1,5.41E1,-1.7377636E-1,-5.026727E-2,-2.643263E-1,2.6054926E-2,2.195658E-1,1.59831E-1,-1.9149901E-1,-7.789255E-2,-3.3839595E-1,1.9175991E-1,-3.929853E-2,1.1912704E-2,-1.8568486E-1,2.6628828E-1,-8.677545E-2,3.190309E-2,-2.5505808E-1,1.7064033E-1,-1.7395517E-1,4.925477E-2,-2.3266824E-1,9.7024605E-2,-1.1497524E-1,-4.7671452E-2,-2.8424057E-1,-1.0264682E-2,-2.1620743E-1,2.9461104E-1,-4.3163065E-2],"split_indices":[15,12,15,9,15,12,15,3,15,12,6,15,3,8,0,14,13,9,3,1,0,0,9,5,3,15,9,3,14,7,0,0,0,0,0,0,0,0,0,9,0,0,2,7,3,9,3,9,10,9,11,15,0,11,0,0,0,0,0,0,0,0,0,0,0,0,0,0,0,0,0,0,0,0,0,0,0,0,0,0,0,0,0],"split_type":[0,0,0,0,0,0,0,0,0,0,0,0,0,0,0,0,0,0,0,0,0,0,0,0,0,0,0,0,0,0,0,0,0,0,0,0,0,0,0,0,0,0,0,0,0,0,0,0,0,0,0,0,0,0,0,0,0,0,0,0,0,0,0,0,0,0,0,0,0,0,0,0,0,0,0,0,0,0,0,0,0,0,0],"sum_hessian":[4.8348044E2,2.3603911E2,2.4744133E2,2.0018489E2,3.585422E1,1.3077042E2,1.16670906E2,1.9301453E2,7.1703568E0,1.2242754E1,2.3611467E1,5.8024677E1,7.2745735E1,1.2295735E1,1.04375175E2,4.6306744E0,1.8838385E2,4.8259306E0,2.3444262E0,5.4598284E0,6.782926E0,6.581101E0,1.7030367E1,2.6873917E1,3.1150763E1,5.4898487E1,1.7847248E1,3.6060786E0,8.689656E0,2.8008397E0,1.8298345E0,1.8732768E2,1.0561662E0,3.3414607E0,1.4844698E0,1.0450068E0,1.2994194E0,1.1163641E0,4.3434644E0,4.790277E0,1.9926488E0,1.4527867E0,5.128314E0,5.1366243E0,1.1893742E1,1.976321E1,7.110707E0,1.0595773E1,2.055499E1,4.7132565E1,7.7659225E0,1.158985E1,6.257398E0,2.3830838E0,1.2229947E0,1.1621383E0,7.5275183E0,1.0024096E0,1.7984302E0,3.5173342E0,1.272943E0,1.685908E0,3.4424062E0,3.6296785E0,1.506946E0,4.6897287E0,7.2040133E0,1.8472778E1,1.2904315E0,5.9216094E0,1.1890972E0,9.545183E0,1.0505893E0,8.931456E0,1.1623535E1,1.9416378E1,2.7716188E1,1.4408746E0,6.325048E0,2.9986997E0,8.59115E0,1.3131765E0,1.0699074E0],"tree_param":{"num_deleted":"0","num_feature":"49","num_nodes":"83","size_leaf_vector":"1"}},{"base_weights":[9.991028E-2,7.780125E-1,-4.227982E-1,9.449888E-1,-6.1894223E-2,-9.008188E-2,-9.7537273E-1,1.1288668E-1,9.7089666E-1,1.3328628E-1,-3.852708E-1,9.748325E-2,-4.2029658E-1,-4.9242815E-1,-3.00838E-1,-2.3631369E-1,4.9130294E-1,9.920194E-1,1.6259186E-1,2.4222367E-1,-2.643218E-1,-1.3339372E-1,-3.1212804E-1,7.3488665E-1,-4.1774046E-2,-1.4595477E-1,-6.4797163E-1,1.6551414E-1,-2.535502E-1,2.3891912E-1,-7.95589E-2,2.998091E-1,4.7831098E-3,1.9782063E-1,-3.3780214E-1,5.916781E-1,-4.572322E-2,2.083696E-1,-3.7993622E-1,-6.1154485E-2,8.127566E-1,-4.9525377E-1,2.9361907E-3,1.9118142E-1,-6.2964857E-1,-7.6150227E-1,-8.7518804E-2,2.3536403E-3,-1.5518169E-1,2.438453E-1,5.6250073E-2,-1.627326E-1,1.0161347E-1,-2.7165276E-1,-3.8892426E-2,2.8225565E-1,-2.3089878E-3,1.8815619E-1,-3.649326E-2,1.3952133E-1,-1.6241619E-1,-2.4948557E-1,-5.7453223E-2,-1.6391684E-1,-3.064162E-1,1.1352486E-1,-1.3233797E-1],"categories":[],"categories_nodes":[],"categories_segments":[],"categories_sizes":[],"default_left":[0,0,0,0,0,0,0,0,0,0,0,0,0,0,0,0,0,0,0,0,0,0,0,0,0,0,0,0,0,0,0,0,0,0,0,0,0,0,0,0,0,0,0,0,0,0,0,0,0,0,0,0,0,0,0,0,0,0,0,0,0,0,0,0,0,0,0],"id":12,"left_children":[1,3,5,7,9,11,13,15,17,19,21,23,25,27,-1,-1,29,31,33,35,-1,37,-1,39,41,43,45,-1,-1,-1,-1,-1,-1,-1,47,49,51,-1,53,-1,55,-1,57,59,61,63,65,-1,-1,-1,-1,-1,-1,-1,-1,-1,-1,-1,-1,-1,-1,-1,-1,-1,-1,-1,-1],"loss_changes":[1.410507E2,2.4344788E1,4.1249744E1,3.005844E0,1.9231641E0,8.801495E0,6.238861E-1,2.2597878E0,2.2293396E0,2.3391259E0,1.7456332E0,8.109662E0,3.1175232E0,2.8601084E0,0E0,0E0,1.2464144E0,9.608307E-1,1.40655E0,1.8539553E0,0E0,2.1817446E0,0E0,1.3625641E0,5.4468102E0,4.1341043E0,1.7030191E0,0E0,0E0,0E0,0E0,0E0,0E0,0E0,1.9224447E-1,5.870869E-1,2.2617311E0,0E0,9.200032E-1,0E0,1.6172915E0,0E0,5.877657E0,3.3158298E0,7.5593185E-1,7.275982E-1,1.124962E0,0E0,0E0,0E0,0E0,0E0,0E0,0E0,0E0,0E0,0E0,0E0,0E0,0E0,0E0,0E0,0E0,0E0,0E0,0E0,0E0],"parents":[2147483647,0,0,1,1,2,2,3,3,4,4,5,5,6,6,7,7,8,8,9,9,10,10,11,11,12,12,13,13,16,16,17,17,18,18,19,19,21,21,23,23,24,24,25,25,26,26,34,34,35,35,36,36,38,38,40,40,42,42,43,43,44,44,45,45,46,46],"right_children":[2,4,6,8,10,12,14,16,18,20,22,24,26,28,-1,-1,30,32,34,36,-1,38,-1,40,42,44,46,-1,-1,-1,-1,-1,-1,-1,48,50,52,-1,54,-1,56,-1,58,60,62,64,66,-1,-1,-1,-1,-1,-1,-1,-1,-1,-1,-1,-1,-1,-1,-1,-1,-1,-1,-1,-1],"split_conditions":[8.3E-1,1.1E3,1.14E0,6.01E0,1.35E2,6.2E1,1.17E0,1.1E0,2.756E2,8.35E0,1.1008E4,1E0,7.65E0,7.21E0,-3.00838E-1,-2.3631369E-1,7.7E1,1.404E3,6.7E-1,6.99E3,-2.643218E-1,3E-1,-3.1212804E-1,1.27E2,6.73E0,8E2,6.34E2,1.6551414E-1,-2.535502E-1,2.3891912E-1,-7.95589E-2,2.998091E-1,4.7831098E-3,1.9782063E-1,1.05E2,1.721E3,1.062E3,2.083696E-1,1.84E2,-6.1154485E-2,3.28E2,-4.9525377E-1,7.45E0,1.03E0,3.75E2,8.09E0,2.12E1,2.3536403E-3,-1.5518169E-1,2.438453E-1,5.6250073E-2,-1.627326E-1,1.0161347E-1,-2.7165276E-1,-3.8892426E-2,2.8225565E-1,-2.3089878E-3,1.8815619E-1,-3.649326E-2,1.3952133E-1,-1.6241619E-1,-2.4948557E-1,-5.7453223E-2,-1.6391684E-1,-3.064162E-1,1.1352486E-1,-1.3233797E-1],"split_indices":[15,10,15,3,9,12,15,9,9,3,4,15,3,3,0,0,9,7,15,4,0,15,0,6,3,10,6,0,0,0,0,0,0,0,12,10,13,0,11,0,13,0,3,15,8,3,9,0,0,0,0,0,0,0,0,0,0,0,0,0,0,0,0,0,0,0,0],"split_type":[0,0,0,0,0,0,0,0,0,0,0,0,0,0,0,0,0,0,0,0,0,0,0,0,0,0,0,0,0,0,0,0,0,0,0,0,0,0,0,0,0,0,0,0,0,0,0,0,0,0,0,0,0,0,0,0,0,0,0,0,0,0,0,0,0,0,0],"sum_hessian":[3.9601468E2,1.7217111E2,2.2384355E2,1.4351479E2,2.865633E1,1.4044301E2,8.340055E1,4.495233E0,1.3901955E2,1.8236906E1,1.0419425E1,9.001717E1,5.042583E1,5.4994693E0,7.790108E1,1.0099748E0,3.485258E0,1.3525769E2,3.7618613E0,1.7155672E1,1.0812335E0,8.395392E0,2.024033E0,1.53734045E1,7.464377E1,2.3613417E1,2.6812414E1,1.2462792E0,4.25319E0,2.4460378E0,1.0392202E0,1.342239E2,1.0337852E0,1.7282366E0,2.033625E0,7.2735834E0,9.882089E0,1.5093495E0,6.8860426E0,1.0536525E0,1.4319752E1,1.0468156E0,7.3596954E1,1.4271135E1,9.342282E0,2.1997637E1,4.8147783E0,1.0218655E0,1.0117593E0,4.0478344E0,3.2257488E0,4.132097E0,5.7499924E0,1.3769441E0,5.5090985E0,1.225903E1,2.060722E0,1.1572872E1,6.2024082E1,1.0653282E1,3.6178534E0,5.7798495E0,3.5624323E0,1.373297E1,8.264667E0,2.0471592E0,2.767619E0],"tree_param":{"num_deleted":"0","num_feature":"49","num_nodes":"67","size_leaf_vector":"1"}},{"base_weights":[8.6338945E-2,4.2485687E-1,-7.789983E-1,8.2510763E-1,9.1984E-2,-4.044435E-1,-2.9834622E-1,9.524699E-1,-9.5346585E-2,2.8703436E-1,-3.107281E-1,-1.18916646E-1,-7.977453E-1,5.6585968E-3,9.689246E-1,-2.4122028E-1,1.7302097E-1,-4.5829585E-1,3.2584304E-1,-1.477214E-1,-6.968614E-1,1.6386566E-1,-6.192276E-1,-1.00773394E-1,-9.049432E-1,2.9659495E-1,1.0855032E-1,1.5133625E-1,-4.1862643E-1,4.0352565E-1,-6.058983E-1,1.450379E-1,-4.2359978E-1,1.4548786E-1,-9.0974003E-1,5.1391107E-1,-4.1326755E-1,1.5198103E-1,-2.7917582E-1,-1.1305168E-1,7.192043E-2,-2.8929988E-1,-1.0248602E-1,1.0190339E-1,-5.683502E-2,-4.1312423E-2,-2.3530757E-1,2.5632003E-1,5.712451E-2,1.7287081E-2,-2.4121691E-1,9.231457E-2,-1.03681386E-1,-5.3329576E-2,-2.5221676E-1,1.339032E-1,-5.4354724E-2,-5.3519495E-2,-2.932248E-1,2.7394536E-1,1.3817481E-2,4.0442698E-2,-2.2121316E-1,2.2206154E-1,-1.3562123E-1],"categories":[],"categories_nodes":[],"categories_segments":[],"categories_sizes":[],"default_left":[0,0,0,0,0,0,0,0,0,0,0,0,0,0,0,0,0,0,0,0,0,0,0,0,0,0,0,0,0,0,0,0,0,0,0,0,0,0,0,0,0,0,0,0,0,0,0,0,0,0,0,0,0,0,0,0,0,0,0,0,0,0,0,0,0],"id":13,"left_children":[1,3,5,7,9,11,-1,13,15,17,19,21,23,-1,25,27,-1,-1,29,31,33,35,37,39,41,-1,43,-1,45,47,49,51,53,55,57,59,61,63,-1,-1,-1,-1,-1,-1,-1,-1,-1,-1,-1,-1,-1,-1,-1,-1,-1,-1,-1,-1,-1,-1,-1,-1,-1,-1,-1],"loss_changes":[9.812023E1,3.1980556E1,7.202835E0,1.2883156E1,1.0495731E1,3.958745E0,0E0,1.4557037E0,1.5285956E0,6.820196E0,2.648265E0,3.226612E0,1.0300951E0,0E0,1.4924774E0,1.8449514E0,0E0,0E0,6.665986E0,2.6462803E0,2.4107475E0,3.223179E0,2.1070302E0,3.8418275E-1,1.0153484E-1,0E0,2.8724045E-1,0E0,9.731412E-1,7.7636137E0,9.965985E-1,1.4051158E0,1.5663173E0,4.1751766E-1,3.344555E-1,1.7739515E0,1.1973467E0,1.4765971E0,0E0,0E0,0E0,0E0,0E0,0E0,0E0,0E0,0E0,0E0,0E0,0E0,0E0,0E0,0E0,0E0,0E0,0E0,0E0,0E0,0E0,0E0,0E0,0E0,0E0,0E0,0E0],"parents":[2147483647,0,0,1,1,2,2,3,3,4,4,5,5,7,7,8,8,9,9,10,10,11,11,12,12,14,14,15,15,18,18,19,19,20,20,21,21,22,22,23,23,24,24,26,26,28,28,29,29,30,30,31,31,32,32,33,33,34,34,35,35,36,36,37,37],"right_children":[2,4,6,8,10,12,-1,14,16,18,20,22,24,-1,26,28,-1,-1,30,32,34,36,38,40,42,-1,44,-1,46,48,50,52,54,56,58,60,62,64,-1,-1,-1,-1,-1,-1,-1,-1,-1,-1,-1,-1,-1,-1,-1,-1,-1,-1,-1,-1,-1,-1,-1,-1,-1,-1,-1],"split_conditions":[1.09E0,6.4E-1,1.17E0,2.68E2,6E2,3.16E1,-2.9834622E-1,1.2E1,1.37E2,6.73E0,9.7E-1,7.91E0,7.12E0,5.6585968E-3,4.5E2,2.1463E1,1.7302097E-1,-4.5829585E-1,1.69E2,1.5533E2,7.21E0,1.65E1,1.47E2,1.57E3,8.28444E1,2.9659495E-1,4.6E-1,1.5133625E-1,1.28E2,9.8E-1,7.61E0,2.4E2,6.9E1,3.678E1,1.4E0,2.04E2,1.8E1,6E0,-2.7917582E-1,-1.1305168E-1,7.192043E-2,-2.8929988E-1,-1.0248602E-1,1.0190339E-1,-5.683502E-2,-4.1312423E-2,-2.3530757E-1,2.5632003E-1,5.712451E-2,1.7287081E-2,-2.4121691E-1,9.231457E-2,-1.03681386E-1,-5.3329576E-2,-2.5221676E-1,1.339032E-1,-5.4354724E-2,-5.3519495E-2,-2.932248E-1,2.7394536E-1,1.3817481E-2,4.0442698E-2,-2.2121316E-1,2.2206154E-1,-1.3562123E-1],"split_indices":[15,15,15,12,10,12,0,6,14,3,15,3,3,0,9,0,0,0,9,12,3,9,6,4,1,0,15,0,9,15,3,9,9,9,14,10,12,12,0,0,0,0,0,0,0,0,0,0,0,0,0,0,0,0,0,0,0,0,0,0,0,0,0,0,0],"split_type":[0,0,0,0,0,0,0,0,0,0,0,0,0,0,0,0,0,0,0,0,0,0,0,0,0,0,0,0,0,0,0,0,0,0,0,0,0,0,0,0,0,0,0,0,0,0,0,0,0,0,0,0,0,0,0,0,0,0,0,0,0,0,0,0,0],"sum_hessian":[3.3282907E2,2.3960512E2,9.322394E1,1.0812066E2,1.3148445E2,3.5096832E1,5.8127106E1,9.494802E1,1.3172639E1,8.877449E1,4.2709965E1,2.1089073E1,1.4007761E1,1.6816324E0,9.326639E1,1.1350197E1,1.8224417E0,1.055506E0,8.771899E1,3.1004103E1,1.1705861E1,1.3903248E1,7.185825E0,2.1258867E0,1.1881874E1,9.103031E1,2.2360773E0,1.8270853E0,9.523112E0,8.1491646E1,6.2273383E0,1.5271943E1,1.5732161E1,2.4253707E0,9.280491E0,8.722427E0,5.1808205E0,2.2139454E0,4.9718795E0,1.1151156E0,1.010771E0,1.0104697E1,1.7771763E0,1.1805732E0,1.055504E0,6.16461E0,3.3585021E0,2.5189491E1,5.6302155E1,1.5951766E0,4.632162E0,1.1749209E1,3.5227334E0,1.0795763E1,4.936397E0,1.0718637E0,1.353507E0,1.0940185E0,8.186472E0,4.192761E0,4.529666E0,2.1422656E0,3.0385547E0,1.0074719E0,1.2064736E0],"tree_param":{"num_deleted":"0","num_feature":"49","num_nodes":"65","size_leaf_vector":"1"}},{"base_weights":[7.0721805E-2,6.1551315E-1,-3.696422E-1,8.899699E-1,-2.1637144E-2,-1.2611698E-1,-2.9576495E-1,-1.8081727E-3,9.288994E-1,3.414479E-1,-1.7577821E-1,1.01327136E-1,-3.3461773E-1,1.8081254E-1,-4.6178153E-1,9.719841E-1,1.5087387E-1,7.264108E-1,-3.1552266E-2,1.1502029E-2,-5.5714184E-1,2.1615568E-1,-9.071345E-1,-5.1784016E-2,-5.9906375E-1,-1.8315166E-1,-3.370374E-2,2.9734656E-1,2.2760782E-1,1.9930777E-1,-2.886502E-1,3.876583E-2,2.5322545E-1,2.4749202E-1,-3.7222832E-1,4.1473663E-1,-2.4911402E-1,-6.9893706E-1,8.4640935E-2,4.5718214E-1,-1.5926501E-1,-1.0818017E-1,-1.104777E0,-3.3469296E-1,4.5200285E-2,-1.8624802E-1,-7.8783125E-1,1.8175247E-1,-8.396079E-2,5.1989697E-2,-1.8390815E-1,-1.991265E-2,1.937611E-1,2.9178746E-3,-2.0174481E-1,-1.2306882E-1,1.763196E-1,7.4046806E-2,-1.513142E-1,-6.8265796E-2,-2.519264E-1,1.664248E-1,-2.1857549E-1,2.1820124E-2,-1.9604035E-1,-3.9209434E-1,-8.102457E-2,7.9027824E-2,-1.1742567E-1,7.122338E-2,-1.311796E-1,-5.460568E-2,-2.6138103E-1],"categories":[],"categories_nodes":[],"categories_segments":[],"categories_sizes":[],"default_left":[0,0,0,0,0,0,0,0,0,0,0,0,0,0,0,0,0,0,0,0,0,0,0,0,0,0,0,0,0,0,0,0,0,0,0,0,0,0,0,0,0,0,0,0,0,0,0,0,0,0,0,0,0,0,0,0,0,0,0,0,0,0,0,0,0,0,0,0,0,0,0,0,0],"id":14,"left_children":[1,3,5,7,9,11,-1,13,15,17,19,21,23,-1,25,27,29,31,33,35,37,39,41,43,45,-1,-1,-1,47,-1,49,-1,-1,51,53,55,57,59,-1,61,63,-1,65,-1,67,69,71,-1,-1,-1,-1,-1,-1,-1,-1,-1,-1,-1,-1,-1,-1,-1,-1,-1,-1,-1,-1,-1,-1,-1,-1,-1,-1],"loss_changes":[6.81687E1,2.2221638E1,2.347177E1,3.083229E0,2.2539809E0,5.4326763E0,0E0,1.5882229E0,2.704399E0,1.7492411E0,2.0190053E0,6.590152E0,4.428826E0,0E0,9.9868655E-2,9.218445E-1,1.4661345E0,3.0961895E-1,7.636993E-1,2.1923E0,1.3040495E0,4.6314654E0,2.3211336E-1,3.1361635E0,2.2472525E0,0E0,0E0,0E0,8.062221E-1,0E0,6.6658574E-1,0E0,0E0,6.035609E-1,4.1714412E-1,1.4083825E0,1.7321466E0,3.56153E-1,0E0,3.9836698E0,2.391026E0,0E0,2.88733E-1,0E0,2.8061967E0,1.2682377E0,8.9138985E-1,0E0,0E0,0E0,0E0,0E0,0E0,0E0,0E0,0E0,0E0,0E0,0E0,0E0,0E0,0E0,0E0,0E0,0E0,0E0,0E0,0E0,0E0,0E0,0E0,0E0,0E0],"parents":[2147483647,0,0,1,1,2,2,3,3,4,4,5,5,7,7,8,8,9,9,10,10,11,11,12,12,14,14,15,15,16,16,17,17,18,18,19,19,20,20,21,21,22,22,23,23,24,24,28,28,30,30,33,33,34,34,35,35,36,36,37,37,39,39,40,40,42,42,44,44,45,45,46,46],"right_children":[2,4,6,8,10,12,-1,14,16,18,20,22,24,-1,26,28,30,32,34,36,38,40,42,44,46,-1,-1,-1,48,-1,50,-1,-1,52,54,56,58,60,-1,62,64,-1,66,-1,68,70,72,-1,-1,-1,-1,-1,-1,-1,-1,-1,-1,-1,-1,-1,-1,-1,-1,-1,-1,-1,-1,-1,-1,-1,-1,-1,-1],"split_conditions":[9.2E-1,8E2,1.17E0,6.01E0,4.5E-1,2.2E1,-2.9576495E-1,3E-1,2.16E2,3.56E2,1.721E3,8.54E0,7.66E0,1.8081254E-1,1.2E1,1.23E2,7.76E0,1.58E2,1.1008E4,7.57E0,6.22E2,1.09E0,6.2E0,6.93E0,4.6E1,-1.8315166E-1,-3.370374E-2,2.9734656E-1,8.19E0,1.9930777E-1,8.1E-1,3.876583E-2,2.5322545E-1,2.091E3,2.80708E1,7.05E0,2.02E3,5.8E-1,8.4640935E-2,1.17E2,3.16E1,-1.0818017E-1,4.6E1,-3.3469296E-1,1.95E3,1.01E0,2.7E1,1.8175247E-1,-8.396079E-2,5.1989697E-2,-1.8390815E-1,-1.991265E-2,1.937611E-1,2.9178746E-3,-2.0174481E-1,-1.2306882E-1,1.763196E-1,7.4046806E-2,-1.513142E-1,-6.8265796E-2,-2.519264E-1,1.664248E-1,-2.1857549E-1,2.1820124E-2,-1.9604035E-1,-3.9209434E-1,-8.102457E-2,7.9027824E-2,-1.1742567E-1,7.122338E-2,-1.311796E-1,-5.460568E-2,-2.6138103E-1],"split_indices":[15,10,15,3,15,9,0,15,9,12,10,3,3,0,6,12,3,11,4,3,6,15,9,3,11,0,0,0,3,0,15,0,0,7,0,3,2,15,0,12,12,0,8,0,4,15,12,0,0,0,0,0,0,0,0,0,0,0,0,0,0,0,0,0,0,0,0,0,0,0,0,0,0],"split_type":[0,0,0,0,0,0,0,0,0,0,0,0,0,0,0,0,0,0,0,0,0,0,0,0,0,0,0,0,0,0,0,0,0,0,0,0,0,0,0,0,0,0,0,0,0,0,0,0,0,0,0,0,0,0,0,0,0,0,0,0,0,0,0,0,0,0,0,0,0,0,0,0,0],"sum_hessian":[2.821986E2,1.25964874E2,1.5623375E2,8.77634E1,3.8201473E1,1.1284462E2,4.3389122E1,3.7108388E0,8.405256E1,1.10224695E1,2.7179003E1,5.4216404E1,5.862822E1,1.469391E0,2.241448E0,7.9406E1,4.646559E0,4.9579887E0,6.0644813E0,1.887815E1,8.300852E0,4.9379463E1,4.836938E0,2.8907024E1,2.9721195E1,1.0482023E0,1.1932456E0,7.708908E1,2.3169177E0,1.9070526E0,2.7395058E0,1.1615051E0,3.7964835E0,3.4841645E0,2.5803168E0,7.1790676E0,1.1699083E1,7.2441726E0,1.056679E0,2.9939812E1,1.9439653E1,2.0347695E0,2.8021684E0,1.5375621E0,2.7369463E1,9.94943E0,1.9771765E1,1.2164447E0,1.100473E0,1.3222384E0,1.4172674E0,2.4149222E0,1.0692422E0,1.5615149E0,1.0188018E0,1.0067635E0,6.172304E0,3.986709E0,7.7123747E0,2.268004E0,4.9761686E0,2.8155298E1,1.7845118E0,1.3809665E1,5.629989E0,1.8002423E0,1.0019261E0,1.8513123E1,8.856339E0,3.7219098E0,6.227521E0,2.7786543E0,1.6993109E1],"tree_param":{"num_deleted":"0","num_feature":"49","num_nodes":"73","size_leaf_vector":"1"}},{"base_weights":[5.6595903E-2,6.824582E-1,-2.5871286E-1,8.8995373E-1,-6.7163065E-2,-5.993111E-2,-9.281437E-1,-2.2644696E-3,9.419405E-1,5.6145944E-2,-5.101241E-1,4.5847047E-2,-4.7255453E-1,-2.7832675E-1,-2.939115E-1,-1.9019412E-1,3.6989403E-1,2.954621E-1,3.0009532E-1,-4.0636098E-1,2.4158967E-1,-2.0578464E-2,-2.0794651E-1,-3.95943E-1,8.381787E-2,-1.9451688E-1,-6.841514E-1,1.367346E-1,-2.0434348E-1,-4.6585746E-2,2.0204698E-1,5.832293E-1,-1.00179665E-1,2.7236579E-2,-1.7475432E-1,6.7713755E-1,-9.545283E-2,1.8086533E-1,-4.4671845E-1,2.2497955E-1,-5.28541E-1,-3.757927E-1,-8.490285E-1,3.2968808E-2,2.1238601E-1,2.7433878E-1,4.7090705E-3,1.4697117E-1,-9.4019815E-2,1.3063683E-1,-6.0179126E-3,5.8151945E-4,-1.6539717E-1,1.4948118E-1,-1.6359845E-1,5.2141253E-2,-2.0901711E-1,1.1893615E-1,-1.8969683E-1,-1.371981E-1,-3.02518E-1],"categories":[],"categories_nodes":[],"categories_segments":[],"categories_sizes":[],"default_left":[0,0,0,0,0,0,0,0,0,0,0,0,0,0,0,0,0,0,0,0,0,0,0,0,0,0,0,0,0,0,0,0,0,0,0,0,0,0,0,0,0,0,0,0,0,0,0,0,0,0,0,0,0,0,0,0,0,0,0,0,0],"id":15,"left_children":[1,3,5,7,9,11,13,15,17,19,21,23,25,27,-1,-1,29,-1,31,33,35,-1,-1,-1,37,39,41,-1,-1,-1,-1,43,-1,-1,-1,45,47,49,51,53,55,57,59,-1,-1,-1,-1,-1,-1,-1,-1,-1,-1,-1,-1,-1,-1,-1,-1,-1,-1],"loss_changes":[4.84172E1,1.2840961E1,2.1672565E1,2.9905128E0,1.0524565E0,5.563364E0,9.7758865E-1,1.303004E0,1.3821487E0,1.4330117E0,2.9031563E-1,5.398387E0,1.3963017E0,1.5347158E0,0E0,0E0,6.6128254E-1,0E0,1.1381738E0,4.7561193E-1,1.7874788E0,0E0,0E0,0E0,5.237426E0,1.8888489E0,4.1124392E-1,0E0,0E0,0E0,0E0,1.5817094E-1,0E0,0E0,0E0,8.087423E-1,1.109428E0,4.376132E0,7.4144864E-1,1.5981414E0,9.870093E-1,1.5975367E0,7.3533535E-2,0E0,0E0,0E0,0E0,0E0,0E0,0E0,0E0,0E0,0E0,0E0,0E0,0E0,0E0,0E0,0E0,0E0,0E0],"parents":[2147483647,0,0,1,1,2,2,3,3,4,4,5,5,6,6,7,7,8,8,9,9,10,10,11,11,12,12,13,13,16,16,18,18,19,19,20,20,24,24,25,25,26,26,31,31,35,35,36,36,37,37,38,38,39,39,40,40,41,41,42,42],"right_children":[2,4,6,8,10,12,14,16,18,20,22,24,26,28,-1,-1,30,-1,32,34,36,-1,-1,-1,38,40,42,-1,-1,-1,-1,44,-1,-1,-1,46,48,50,52,54,56,58,60,-1,-1,-1,-1,-1,-1,-1,-1,-1,-1,-1,-1,-1,-1,-1,-1,-1,-1],"split_conditions":[7.8E-1,1.47E3,1.14E0,6.01E0,3.3E2,8.16E0,7.21E0,1.4E0,2.16E2,6.8E0,7.43E0,6.86E0,3.3E1,1.97E2,-2.939115E-1,-1.9019412E-1,1.0902E1,2.954621E-1,1.8E2,2.7E0,8.374E3,-2.0578464E-2,-2.0794651E-1,-3.95943E-1,1.22E2,1.05E0,1.7E1,1.367346E-1,-2.0434348E-1,-4.6585746E-2,2.0204698E-1,8.6E1,-1.00179665E-1,2.7236579E-2,-1.7475432E-1,6.6E-1,1.41E1,1.03E0,4.4E1,8.8E0,3.07E2,9.8E-1,4.5E1,3.2968808E-2,2.1238601E-1,2.7433878E-1,4.7090705E-3,1.4697117E-1,-9.4019815E-2,1.3063683E-1,-6.0179126E-3,5.8151945E-4,-1.6539717E-1,1.4948118E-1,-1.6359845E-1,5.2141253E-2,-2.0901711E-1,1.1893615E-1,-1.8969683E-1,-1.371981E-1,-3.02518E-1],"split_indices":[15,10,15,3,9,3,3,9,9,14,3,3,12,10,0,0,0,0,12,14,4,0,0,0,9,15,9,0,0,0,0,11,0,0,0,15,14,15,12,3,4,15,11,0,0,0,0,0,0,0,0,0,0,0,0,0,0,0,0,0,0],"split_type":[0,0,0,0,0,0,0,0,0,0,0,0,0,0,0,0,0,0,0,0,0,0,0,0,0,0,0,0,0,0,0,0,0,0,0,0,0,0,0,0,0,0,0,0,0,0,0,0,0,0,0,0,0,0,0,0,0,0,0,0,0],"sum_hessian":[2.4345456E2,8.117143E1,1.6228313E2,6.342748E1,1.7743956E1,1.25967636E2,3.6315487E1,3.5448987E0,5.988258E1,1.4563186E1,3.1807694E0,1.0097186E2,2.4995775E1,3.1400452E0,3.317544E1,1.0533613E0,2.4915373E0,5.562722E1,4.2553606E0,3.8270414E0,1.0736144E1,1.3350276E0,1.8457419E0,1.8182495E0,9.915362E1,1.1631413E1,1.3364361E1,1.0659465E0,2.0740988E0,1.0916469E0,1.3998905E0,2.9970882E0,1.2582725E0,1.1280378E0,2.6990035E0,4.243441E0,6.492703E0,8.4378E1,1.4775615E1,5.300741E0,6.3306727E0,5.798689E0,7.565672E0,1.0173421E0,1.979746E0,2.8414106E0,1.4020305E0,1.4230053E0,5.069698E0,3.6703716E1,4.7674282E1,2.9791958E0,1.1796419E1,4.173289E0,1.1274523E0,1.2166046E0,5.1140685E0,1.3099189E0,4.48877E0,3.3070312E0,4.258641E0],"tree_param":{"num_deleted":"0","num_feature":"49","num_nodes":"61","size_leaf_vector":"1"}},{"base_weights":[4.3850623E-2,5.8416754E-1,-2.3731944E-1,8.799076E-1,-1.0395392E-3,-7.9163186E-2,-2.896087E-1,-3.1226084E-3,9.459289E-1,3.652439E-1,-1.2998477E-1,1.23627E-1,-2.8532332E-1,1.3383181E-1,-1.5626493E-1,2.961503E-1,-4.301207E-3,-2.7275237E-1,7.3519844E-1,4.4046524E-1,-2.534499E-1,3.8048849E-1,-7.64866E-2,-2.0105788E-1,-7.797263E-1,1.0548673E-1,-2.1428554E-1,2.6325306E-1,3.8085435E-2,2.0305349E-1,-3.8509031E-3,5.8515772E-2,-4.9804696E-1,6.101376E-1,-1.7217799E-1,2.8311852E-1,-3.0429858E-1,-2.1848803E-2,-5.293687E-1,-5.026993E-2,-2.5819454E-1,2.0847821E-1,-7.312196E-2,1.0868804E-1,-1.9513293E-1,2.0493011E-1,-1.0136911E-1,1.2060735E-1,-1.1676405E-1,1.4507438E-1,-1.4959134E-1,3.5835806E-2,-1.8391216E-1,3.5857346E-2,-1.4652924E-1,-1.0292383E-2,-1.9873375E-1],"categories":[],"categories_nodes":[],"categories_segments":[],"categories_sizes":[],"default_left":[0,0,0,0,0,0,0,0,0,0,0,0,0,0,0,0,0,0,0,0,0,0,0,0,0,0,0,0,0,0,0,0,0,0,0,0,0,0,0,0,0,0,0,0,0,0,0,0,0,0,0,0,0,0,0,0,0],"id":16,"left_children":[1,3,5,7,9,11,-1,13,15,17,19,21,23,-1,-1,-1,-1,25,27,29,31,33,35,37,39,-1,-1,-1,-1,-1,-1,41,43,45,47,49,51,53,55,-1,-1,-1,-1,-1,-1,-1,-1,-1,-1,-1,-1,-1,-1,-1,-1,-1,-1],"loss_changes":[3.304308E1,1.2880861E1,1.6408642E1,2.8851547E0,1.2746383E0,4.9980907E0,0E0,1.2641324E0,1.8358612E0,1.8592596E0,1.5170633E0,3.1409647E0,2.3081808E0,0E0,0E0,0E0,0E0,1.1633351E0,2.970655E-1,4.2826098E-1,1.3293239E0,3.4910767E0,2.9421127E0,3.0419395E0,2.6537752E-1,0E0,0E0,0E0,0E0,0E0,0E0,1.7819558E0,1.5016608E0,1.5497146E0,1.2296478E0,2.441088E0,2.9284153E0,2.3417087E0,1.1817575E0,0E0,0E0,0E0,0E0,0E0,0E0,0E0,0E0,0E0,0E0,0E0,0E0,0E0,0E0,0E0,0E0,0E0,0E0],"parents":[2147483647,0,0,1,1,2,2,3,3,4,4,5,5,7,7,8,8,9,9,10,10,11,11,12,12,17,17,18,18,19,19,20,20,21,21,22,22,23,23,24,24,31,31,32,32,33,33,34,34,35,35,36,36,37,37,38,38],"right_children":[2,4,6,8,10,12,-1,14,16,18,20,22,24,-1,-1,-1,-1,26,28,30,32,34,36,38,40,-1,-1,-1,-1,-1,-1,42,44,46,48,50,52,54,56,-1,-1,-1,-1,-1,-1,-1,-1,-1,-1,-1,-1,-1,-1,-1,-1,-1,-1],"split_conditions":[8.3E-1,1.37E2,1.17E0,6.01E0,2.8E2,4.46E1,-2.896087E-1,2.78E1,6.468E2,9.1E1,2.6E-1,1.07E0,4.03E3,1.3383181E-1,-1.5626493E-1,2.961503E-1,-4.301207E-3,1.721E3,6.9E-1,1.1008E4,4.9E1,3.6E0,7.7E0,1.03E0,5.2E0,1.0548673E-1,-2.1428554E-1,2.6325306E-1,3.8085435E-2,2.0305349E-1,-3.8509031E-3,6.99E3,2.596E0,5.25E2,6.2E0,5.5E1,1.69E2,8.1E0,7.34E0,-5.026993E-2,-2.5819454E-1,2.0847821E-1,-7.312196E-2,1.0868804E-1,-1.9513293E-1,2.0493011E-1,-1.0136911E-1,1.2060735E-1,-1.1676405E-1,1.4507438E-1,-1.4959134E-1,3.5835806E-2,-1.8391216E-1,3.5857346E-2,-1.4652924E-1,-1.0292383E-2,-1.9873375E-1],"split_indices":[15,12,15,3,8,12,0,8,6,8,15,15,4,0,0,0,0,10,15,4,9,5,3,15,9,0,0,0,0,0,0,4,14,7,9,9,10,3,3,0,0,0,0,0,0,0,0,0,0,0,0,0,0,0,0,0,0],"split_type":[0,0,0,0,0,0,0,0,0,0,0,0,0,0,0,0,0,0,0,0,0,0,0,0,0,0,0,0,0,0,0,0,0,0,0,0,0,0,0,0,0,0,0,0,0,0,0,0,0,0,0,0,0,0,0,0,0],"sum_hessian":[2.1558925E2,7.342082E1,1.4216843E2,4.8438416E1,2.4982407E1,1.17707085E2,2.4461344E1,3.4359205E0,4.5002495E1,6.0276465E0,1.895476E1,5.954034E1,5.8166748E1,1.913815E0,1.5221053E0,4.3122574E1,1.8799186E0,2.3088005E0,3.7188463E0,2.9157045E0,1.6039055E1,2.567855E1,3.386179E1,5.089836E1,7.2683845E0,1.0407294E0,1.268071E0,2.6549737E0,1.0638725E0,1.5922573E0,1.3234473E0,7.3831525E0,8.655903E0,1.8067137E1,7.611413E0,1.303812E1,2.082367E1,3.361571E1,1.7282652E1,1.2071602E0,6.061224E0,1.9590838E0,5.4240685E0,1.0952785E0,7.5606246E0,1.7035505E1,1.0316328E0,1.8540035E0,5.757409E0,1.0680721E1,2.357399E0,9.035482E0,1.1788188E1,2.636961E1,7.2461023E0,3.9279764E0,1.3354674E1],"tree_param":{"num_deleted":"0","num_feature":"49","num_nodes":"57","size_leaf_vector":"1"}},{"base_weights":[3.722029E-2,5.956687E-1,-1.7872472E-1,8.9232314E-1,8.930885E-2,-2.9124573E-2,-8.2366824E-1,-5.6737006E-2,9.5060974E-1,2.7688468E-1,-2.2348799E-1,1.2503485E-1,-2.6757506E-1,-4.036142E-1,-2.8552818E-1,2.9205447E-1,1.0266993E-1,4.698472E-1,-2.3859172E-1,1.2033003E-1,-3.6856705E-1,-3.1888112E-1,1.5984201E-1,-4.5271378E-4,-4.1371477E-1,8.362496E-2,-6.039248E-1,6.236495E-1,-5.16004E-2,6.239827E-2,-1.6887215E-1,7.836536E-2,-5.824601E-1,5.7298946E-1,1.6899968E-2,1.9490127E-1,-4.3196422E-1,-1.6093728E-1,-6.095309E-1,-8.643659E-3,-2.1457258E-1,3.5139885E-2,2.5770125E-1,8.312423E-2,-1.0257176E-1,-1.7508317E-2,-2.0892935E-1,2.1708265E-1,-6.250014E-2,8.924018E-2,-7.126924E-2,1.0180683E-1,-1.2921467E-1,-4.4506297E-2,-2.4292381E-1,7.278626E-2,-1.7905483E-1,-2.0266347E-1,-4.587127E-3],"categories":[],"categories_nodes":[],"categories_segments":[],"categories_sizes":[],"default_left":[0,0,0,0,0,0,0,0,0,0,0,0,0,0,0,0,0,0,0,0,0,0,0,0,0,0,0,0,0,0,0,0,0,0,0,0,0,0,0,0,0,0,0,0,0,0,0,0,0,0,0,0,0,0,0,0,0,0,0],"id":17,"left_children":[1,3,5,7,9,11,13,-1,15,17,19,21,23,25,-1,-1,-1,27,29,-1,31,-1,33,35,37,-1,39,41,43,-1,-1,-1,45,47,49,51,53,55,57,-1,-1,-1,-1,-1,-1,-1,-1,-1,-1,-1,-1,-1,-1,-1,-1,-1,-1,-1,-1],"loss_changes":[2.3296164E1,8.00989E0,1.3429857E1,2.3133202E0,1.2943795E0,4.2322497E0,1.026537E0,0E0,1.1668587E-1,1.4626926E0,9.115323E-1,3.0666704E0,1.7630727E0,1.2431002E0,0E0,0E0,0E0,8.515496E-1,7.4879324E-1,0E0,1.1436555E0,0E0,4.0610614E0,1.515046E0,1.3469882E0,0E0,3.8876247E-1,8.490133E-1,4.0490353E-1,0E0,0E0,0E0,3.0604327E-1,2.2323165E0,3.800455E0,1.2643816E0,4.799329E-1,2.6256866E0,6.209388E-1,0E0,0E0,0E0,0E0,0E0,0E0,0E0,0E0,0E0,0E0,0E0,0E0,0E0,0E0,0E0,0E0,0E0,0E0,0E0,0E0],"parents":[2147483647,0,0,1,1,2,2,3,3,4,4,5,5,6,6,8,8,9,9,10,10,11,11,12,12,13,13,17,17,18,18,20,20,22,22,23,23,24,24,26,26,27,27,28,28,32,32,33,33,34,34,35,35,36,36,37,37,38,38],"right_children":[2,4,6,8,10,12,14,-1,16,18,20,22,24,26,-1,-1,-1,28,30,-1,32,-1,34,36,38,-1,40,42,44,-1,-1,-1,46,48,50,52,54,56,58,-1,-1,-1,-1,-1,-1,-1,-1,-1,-1,-1,-1,-1,-1,-1,-1,-1,-1,-1,-1],"split_conditions":[7.5E-1,1.37E2,1.12E0,1.2E1,3.56E2,6.2E1,1.17E0,-5.6737006E-2,1E0,3.3E2,1.27E2,6.73E0,7.56E0,1.06E1,-2.8552818E-1,2.9205447E-1,1.0266993E-1,1E0,7.61E0,1.2033003E-1,2.5E-1,-3.1888112E-1,1.01E0,6.948E2,9.38E-1,8.362496E-2,1.17361E1,6.8E0,7.48511E1,6.239827E-2,-1.6887215E-1,7.836536E-2,2.31E2,1E0,7.83E0,1.05E0,2.023E3,8.4E2,1E0,-8.643659E-3,-2.1457258E-1,3.5139885E-2,2.5770125E-1,8.312423E-2,-1.0257176E-1,-1.7508317E-2,-2.0892935E-1,2.1708265E-1,-6.250014E-2,8.924018E-2,-7.126924E-2,1.0180683E-1,-1.2921467E-1,-4.4506297E-2,-2.4292381E-1,7.278626E-2,-1.7905483E-1,-2.0266347E-1,-4.587127E-3],"split_indices":[15,12,15,6,12,12,15,0,17,9,6,3,3,8,0,0,0,42,3,0,15,0,15,7,15,0,0,14,1,0,0,0,8,42,3,15,2,10,35,0,0,0,0,0,0,0,0,0,0,0,0,0,0,0,0,0,0,0,0],"split_type":[0,0,0,0,0,0,0,0,0,0,0,0,0,0,0,0,0,0,0,0,0,0,0,0,0,0,0,0,0,0,0,0,0,0,0,0,0,0,0,0,0,0,0,0,0,0,0,0,0,0,0,0,0,0,0,0,0,0,0],"sum_hessian":[1.9129547E2,5.285373E1,1.3844174E2,3.2847534E1,2.0006195E1,1.13223694E2,2.5218042E1,1.5650449E0,3.128249E1,1.2578198E1,7.4279966E0,6.905496E1,4.4168736E1,6.8630276E0,1.8355015E1,2.9569042E1,1.7134471E0,9.216594E0,3.361605E0,1.067508E0,6.3604884E0,1.1248784E0,6.793008E1,1.5973881E1,2.8194857E1,1.4686022E0,5.3944254E0,6.9659677E0,2.2506258E0,1.5651052E0,1.7964998E0,1.5564463E0,4.8040423E0,1.6687992E1,5.124209E1,1.1373291E1,4.60059E0,1.3102641E1,1.5092215E1,1.0789467E0,4.315479E0,2.6850493E0,4.2809186E0,1.0769113E0,1.1737146E0,1.1281734E0,3.6758687E0,1.4052831E1,2.6351614E0,2.4290665E1,2.6951424E1,9.611551E0,1.7617394E0,3.4233198E0,1.1772703E0,7.0340686E0,6.0685725E0,1.3460115E1,1.6320995E0],"tree_param":{"num_deleted":"0","num_feature":"49","num_nodes":"59","size_leaf_vector":"1"}},{"base_weights":[2.7918562E-2,1.8169524E-1,-5.6077325E-1,6.4399695E-1,3.853266E-2,-2.8843358E-1,-2.8051782E-1,8.13482E-1,-8.983097E-2,1.7454612E-1,-2.7811506E-1,-2.615764E-2,-6.540972E-1,9.361352E-1,7.824401E-2,9.467411E-2,-1.6533473E-1,-4.035697E-1,2.1825825E-1,-6.553682E-2,-5.9745455E-1,2.3655923E-1,-5.9876066E-1,-1.1118306E-1,-2.4867031E-1,2.9041988E-1,8.52974E-2,-1.0253466E-1,4.4511232E-1,-8.4011815E-2,3.5372442E-1,2.8886476E-1,-4.646868E-1,2.596794E-1,-3.0996862E-1,-2.1002291E-1,-7.325969E-1,4.713614E-1,-1.6963054E-1,2.4384751E-3,-2.3137458E-1,1.2776619E-1,-1.7425327E-1,1.6225573E-1,3.733241E-2,1.8269764E-1,-6.1289417E-3,1.3252637E-1,-1.8312305E-3,-2.3097016E-1,-8.382946E-3,1.6726321E-1,-5.5350684E-2,1.1501615E-1,-1.2976982E-1,1.15029335E-1,-1.4726318E-1,-5.3259984E-2,-2.338766E-1,-6.594243E-2,2.1217602E-1],"categories":[],"categories_nodes":[],"categories_segments":[],"categories_sizes":[],"default_left":[0,0,0,0,0,0,0,0,0,0,0,0,0,0,0,0,0,0,0,0,0,0,0,0,0,0,0,0,0,0,0,0,0,0,0,0,0,0,0,0,0,0,0,0,0,0,0,0,0,0,0,0,0,0,0,0,0,0,0,0,0],"id":18,"left_children":[1,3,5,7,9,11,-1,13,15,17,19,21,23,25,27,29,-1,-1,31,33,35,37,39,41,-1,-1,-1,-1,43,-1,45,47,49,51,53,55,57,59,-1,-1,-1,-1,-1,-1,-1,-1,-1,-1,-1,-1,-1,-1,-1,-1,-1,-1,-1,-1,-1,-1,-1],"loss_changes":[1.5838515E1,9.147343E0,3.4251919E0,4.1406803E0,4.6516967E0,2.1338086E0,0E0,2.3316631E0,6.510783E-1,5.301291E0,2.1671247E0,2.263009E0,7.928965E-1,1.9854355E-1,9.078032E-1,6.698056E-1,0E0,0E0,3.7089362E0,1.7208354E0,5.1975155E-1,2.2218285E0,5.001911E-1,1.1116205E0,0E0,0E0,0E0,0E0,2.6394129E-2,0E0,3.8667613E-1,3.0604672E0,9.5550275E-1,1.3463426E0,1.2059907E0,9.764224E-1,9.990549E-2,1.5539105E0,0E0,0E0,0E0,0E0,0E0,0E0,0E0,0E0,0E0,0E0,0E0,0E0,0E0,0E0,0E0,0E0,0E0,0E0,0E0,0E0,0E0,0E0,0E0],"parents":[2147483647,0,0,1,1,2,2,3,3,4,4,5,5,7,7,8,8,9,9,10,10,11,11,12,12,13,13,14,14,15,15,18,18,19,19,20,20,21,21,22,22,23,23,28,28,30,30,31,31,32,32,33,33,34,34,35,35,36,36,37,37],"right_children":[2,4,6,8,10,12,-1,14,16,18,20,22,24,26,28,30,-1,-1,32,34,36,38,40,42,-1,-1,-1,-1,44,-1,46,48,50,52,54,56,58,60,-1,-1,-1,-1,-1,-1,-1,-1,-1,-1,-1,-1,-1,-1,-1,-1,-1,-1,-1,-1,-1,-1,-1],"split_conditions":[1.1E0,5.6E-1,1.17E0,2.272E3,6.2E1,1.53E1,-2.8051782E-1,1.28E2,7.92E0,6.55E0,9.8E-1,7.91E0,7.39E0,1E0,2.4798E1,7.52E0,-1.6533473E-1,-4.035697E-1,8.48E0,7.61E0,3.89E1,3.28E2,6.97E1,3.409E1,-2.4867031E-1,2.9041988E-1,8.52974E-2,-1.0253466E-1,3.1692E3,-8.4011815E-2,8.88E2,1.28E2,5E1,3.47E3,5.4E1,7.61E0,3.7E1,1.4E0,-1.6963054E-1,2.4384751E-3,-2.3137458E-1,1.2776619E-1,-1.7425327E-1,1.6225573E-1,3.733241E-2,1.8269764E-1,-6.1289417E-3,1.3252637E-1,-1.8312305E-3,-2.3097016E-1,-8.382946E-3,1.6726321E-1,-5.5350684E-2,1.1501615E-1,-1.2976982E-1,1.15029335E-1,-1.4726318E-1,-5.3259984E-2,-2.338766E-1,-6.594243E-2,2.1217602E-1],"split_indices":[15,15,15,10,9,9,0,9,3,3,15,3,3,17,0,3,0,0,3,3,12,10,10,12,0,0,0,0,16,0,8,8,8,4,12,3,8,9,0,0,0,0,0,0,0,0,0,0,0,0,0,0,0,0,0,0,0,0,0,0,0],"split_type":[0,0,0,0,0,0,0,0,0,0,0,0,0,0,0,0,0,0,0,0,0,0,0,0,0,0,0,0,0,0,0,0,0,0,0,0,0,0,0,0,0,0,0,0,0,0,0,0,0,0,0,0,0,0,0,0,0,0,0,0,0],"sum_hessian":[1.7283339E2,1.375851E2,3.5248295E1,3.1704927E1,1.0588017E2,2.1427643E1,1.3820651E1,2.566808E1,6.0368485E0,7.437973E1,3.1500443E1,1.3101788E1,8.325856E0,2.1764122E1,3.9039562E0,4.879787E0,1.1570616E0,1.2470663E0,7.313266E1,1.9635014E1,1.1865429E1,9.383431E0,3.7183557E0,2.4262712E0,5.8995852E0,2.0285192E1,1.4789312E0,1.851994E0,2.0519621E0,1.9614899E0,2.918297E0,6.6803215E1,6.329444E0,8.398474E0,1.1236539E1,3.7290168E0,8.136413E0,7.577275E0,1.8061568E0,1.0338143E0,2.6845415E0,1.1753871E0,1.250884E0,1.0514206E0,1.0005417E0,1.3616548E0,1.5566423E0,4.367022E1,2.3133E1,3.2767215E0,3.0527225E0,4.8744745E0,3.5239992E0,1.3686829E0,9.867856E0,1.0805498E0,2.648467E0,1.0079956E0,7.1284165E0,1.9453969E0,5.631878E0],"tree_param":{"num_deleted":"0","num_feature":"49","num_nodes":"61","size_leaf_vector":"1"}},{"base_weights":[1.4907566E-2,3.9589882E-1,-1.746293E-1,7.551217E-1,2.5361378E-2,-8.51497E-2,-2.7436972E-1,-1.4077935E-1,8.5760933E-1,1.4213529E-1,-4.0022728E-1,2.2482434E-1,-2.0377734E-1,8.986162E-2,-1.5313897E-1,2.819489E-1,1.3761611E-1,2.5044492E-1,-2.9837498E-1,-2.189989E-1,5.1436204E-2,3.7693363E-1,-1.04814425E-1,-1.3958926E-1,-2.1778722E-1,1.3344353E-1,-9.738385E-2,3.4624946E-1,-2.1242432E-1,-1.7225535E-1,4.3947406E-2,9.726751E-2,-8.436574E-2,6.946563E-1,1.3276377E-1,4.4576958E-1,-3.5845464E-1,3.7837967E-2,-3.67358E-1,1.7487341E-1,1.9112375E-2,-1.2969823E-1,4.3179207E-2,2.4506E-1,2.5478993E-2,1.3264288E-1,-7.938243E-2,1.1500405E-2,1.8041927E-1,9.751197E-2,-1.7209549E-1,-7.6310836E-2,9.257629E-2,-2.4291743E-2,-1.9445457E-1],"categories":[],"categories_nodes":[],"categories_segments":[],"categories_sizes":[],"default_left":[0,0,0,0,0,0,0,0,0,0,0,0,0,0,0,0,0,0,0,0,0,0,0,0,0,0,0,0,0,0,0,0,0,0,0,0,0,0,0,0,0,0,0,0,0,0,0,0,0,0,0,0,0,0,0],"id":19,"left_children":[1,3,5,7,9,11,-1,13,15,17,19,21,23,-1,-1,-1,25,27,29,-1,31,33,35,37,-1,-1,-1,39,41,-1,-1,-1,-1,43,45,47,49,51,53,-1,-1,-1,-1,-1,-1,-1,-1,-1,-1,-1,-1,-1,-1,-1,-1],"loss_changes":[1.157777E1,7.0689745E0,7.014538E0,2.6002083E0,1.4110426E0,3.6004176E0,0E0,7.439585E-1,1.3134995E0,1.1300662E0,9.503851E-1,1.404895E0,2.259536E0,0E0,0E0,0E0,6.654522E-1,8.849602E-1,6.7571E-1,0E0,4.10647E-1,1.3701608E0,1.4697673E0,2.5988398E0,0E0,0E0,0E0,1.00198E0,3.5668045E-1,0E0,0E0,0E0,0E0,5.2340174E-1,1.5793839E0,1.9279754E-1,1.2125705E0,2.9948418E0,2.2075849E0,0E0,0E0,0E0,0E0,0E0,0E0,0E0,0E0,0E0,0E0,0E0,0E0,0E0,0E0,0E0,0E0],"parents":[2147483647,0,0,1,1,2,2,3,3,4,4,5,5,7,